
\data\
ngram 1=2001
ngram 2=23001
ngram 3=3735

\1-grams:
-1.682479	"	-0.315648
-3.494871	$	-0.2809053
-2.99493	%	-0.3668961
-3.788434	&	-0.3424624
-2.760714	'	-0.08511068
-2.197813	's	-0.2290961
-4.060796	't	-0.14024
-2.258992	(	-0.2635911
-2.25529	)	-0.5485269
-4.081677	+	-0.07413352
-1.271974	,	-0.382957
-2.100764	-	-0.2939575
-1.425218	.	-1.985403
-3.881658	...	-0.08385079
-3.589902	/	-0.2427332
-2.887819	:	-0.2388543
-2.629284	;	-0.1433856
-1.422139	</s>
-2.877398	<1-digit-integer>	-0.5524743
-3.47404	<1-digit-integer>,<3-digit-integer>	-0.111515
-3.435156	<1-digit-integer>.<1-digit-integer>	-0.4116658
-4.022004	<1-digit-integer>.<2-digit-integer>	-0.224982
-3.83255	<1-digit-integer>th	-0.2990542
-2.54021	<2-digit-integer>	-0.3760957
-3.617306	<2-digit-integer>,<3-digit-integer>	-0.06914747
-3.711727	<2-digit-integer>.<1-digit-integer>	-0.5832426
-4.022004	<2-digit-integer>.<2-digit-integer>	-0.3533514
-4.081677	<2-digit-integer>st	-0.3690217
-3.321297	<2-digit-integer>th	-0.4527692
-3.146893	<3-digit-integer>	-0.1984434
-3.47404	<3-digit-integer>,<3-digit-integer>	-0.06227402
-2.165655	<4-digit-integer>	-0.4670602
-3.060357	<4-digit-integer>s	-0.5444037
-3.677921	<4-digit-integer>–<4-digit-integer>	-0.3551155
-99	<s>	-0.4856834
-0.84097	<unk>	-0.03694254
-3.881658	?	-0.4680395
-3.881658	[	-0.162782
-3.881658	]	-0.08174525
-1.813002	a	-0.3664353
-3.881658	a.	-0.2464587
-3.881658	ability	-0.505854
-4.060796	able	-0.431234
-4.081677	abnormalities	-0.219581
-2.981638	about	-0.2406358
-4.060796	above	-0.07840892
-3.416947	abraham	-0.5977841
-4.060796	absence	-0.314198
-3.748389	academic	-0.1530231
-2.938081	academy	-0.4975817
-4.081677	accept	-0.01645085
-3.197623	according	-1.703904
-3.748389	account	-0.3454159
-3.881658	achieved	-0.07451726
-3.881658	achievement	-0.1371897
-2.656276	achilles	-0.3661026
-4.081677	achilles’	-0.1776029
-4.022004	acquired	-0.06812477
-4.060796	across	-0.3049003
-3.435156	act	-0.3393087
-4.060796	acting	-0.08010726
-3.516751	action	-0.08517355
-3.748389	actions	-0.04057695
-3.646557	active	-0.08453764
-3.646557	activity	-0.1395243
-3.83255	actor	0.006824106
-3.881658	actors	-0.143086
-4.022004	acts	-0.2093014
-4.022004	actual	-0.08439723
-3.881658	actuality	-0.379821
-4.081677	actually	-0.1048396
-4.022004	ad	-0.244885
-4.022004	addition	-0.4369414
-4.081677	additional	-0.1098126
-3.617306	address	-0.03628162
-4.247488	admiration	-0.1513632
-4.247488	admitted	-0.3258638
-4.022004	adopted	-0.1804827
-4.247488	adulthood	-0.2924647
-3.646557	adults	-0.1408099
-4.081677	advances	-0.3450392
-4.081677	advocate	-0.1297206
-4.081677	advocated	-0.08020564
-4.247488	advocating	-0.04534639
-4.022004	affair	-0.2361499
-4.247488	affect	-0.2365798
-4.081677	affected	-0.04675747
-3.47404	african	-0.9890416
-2.87228	after	-0.250411
-3.83255	again	-0.08691429
-3.382669	against	-0.1163455
-3.83255	agamemnon	-0.04242499
-3.564125	age	-0.267236
-4.247488	agents	-0.1711095
-4.247488	aggression	-0.2982253
-4.060796	agree	-0.2330237
-4.022004	agreed	-0.2574735
-4.247488	agricultural	-0.1260342
-4.247488	agriculture	-0.05629431
-4.247488	aid	-0.08355316
-4.247488	aims	-0.08810198
-4.081677	air	0.0005180612
-3.881658	airport	-0.9518437
-4.060796	ajax	-0.004315443
-2.623507	alabama	-0.2979361
-4.247488	alcohol	0.0103296
-3.539792	alexander	-0.2245416
-2.797662	all	-0.1523391
-4.060796	allow	-0.1931578
-4.060796	allowed	-0.1418645
-3.788434	almost	-0.1404262
-4.060796	alone	-0.124404
-3.711727	along	-0.773025
-3.677921	alphabet	-0.1850754
-4.081677	already	-0.1178437
-2.719448	also	-0.1157412
-4.081677	alternative	-0.1099796
-3.022799	although	-0.1849352
-4.081677	alto	-0.1858964
-3.186991	altruism	-0.3173216
-3.617306	altruistic	-0.08386067
-3.748389	always	-0.1017953
-4.081677	am	-0.1679503
-4.060796	amendment	-0.2663888
-3.711727	america	-0.1924852
-3.008641	american	-0.1589245
-3.516751	americans	-0.01903979
-3.382669	among	-0.2702772
-4.247488	amount	-0.09942781
-4.247488	ampas	-0.1744852
-2.454506	an	-0.4231393
-3.83255	analysis	-0.3415976
-4.247488	analytics	-0.3133691
-2.898496	anarchism	-0.3452054
-2.968741	anarchist	-0.3009672
-3.267534	anarchists	-0.0504521
-3.646557	anarcho	-1.172634
-4.081677	anarchy	-0.05967946
-3.881658	ancient	-0.1993809
-1.594693	and	-0.1228775
-4.081677	andrew	-0.3889013
-3.788434	angeles	-0.04812935
-4.247488	angry	-0.1204567
-3.748389	animal	-0.03674592
-4.247488	animalia	-0.3223456
-3.382669	animals	-0.1228647
-3.788434	announced	-0.1085148
-4.022004	annual	-0.05056586
-4.247488	annually	-0.08784521
-3.335846	another	-0.07963946
-3.39947	anti	-1.411516
-4.247488	antilochus	-0.07737332
-4.081677	antiquity	0.008276977
-3.166479	any	-0.1504719
-4.247488	anything	-0.01851622
-4.247488	apellicon	-0.02129645
-4.060796	apollo	0.0005746186
-3.881658	appear	-0.3215882
-3.788434	appeared	-0.1780739
-4.022004	appears	-0.2613245
-3.83255	apple	-0.1825679
-4.247488	approach	-0.07337027
-4.081677	approaches	-0.1347858
-4.247488	appropriated	-0.04923771
-3.516751	april	-0.6118585
-4.081677	aquinas	-0.06391048
-2.523938	are	-0.2042311
-3.366494	area	-0.1901074
-3.589902	areas	-0.2671956
-4.081677	argue	-0.3824857
-3.711727	argued	-0.6798612
-4.247488	arguing	-0.1835216
-4.247488	arises	-0.1169497
-3.677921	aristotelian	-0.1263584
-2.585086	aristotle	-0.3647681
-4.247488	armies	-0.1145619
-4.060796	armor	-0.0840072
-3.416947	army	-0.1756846
-3.539792	around	-0.1977091
-4.247488	arrested	-0.1550073
-4.060796	arrived	-0.230196
-4.022004	arrow	-0.2371323
-3.881658	art	-0.3806908
-4.081677	article	-0.0834616
-4.060796	articles	-0.1390019
-4.060796	artists	-0.1855814
-3.881658	arts	-0.2033703
-2.095628	as	-0.4265117
-3.022799	asd	-0.1738406
-3.646557	asked	-0.07352936
-4.081677	aspect	-0.5491205
-4.247488	aspects	-0.1532191
-3.711727	asperger	-0.6861168
-3.539792	associated	-0.8942972
-3.748389	association	-0.1100421
-2.47849	at	-0.4379346
-4.081677	athena	-0.05826782
-3.677921	athens	-0.133719
-3.646557	atlas	-1.265055
-4.247488	attacked	-0.08996083
-4.060796	attempt	-0.2128168
-4.060796	attempted	-0.2456311
-3.881658	attempts	-0.3959113
-3.677921	attention	-0.1539301
-4.081677	attributes	-0.2043495
-3.83255	audience	-0.2280679
-4.081677	august	-0.2409122
-4.247488	author	-0.04755817
-3.83255	authority	-0.2102351
-4.247488	authors	-0.08667685
-2.678495	autism	-0.26487
-3.044942	autistic	-0.6106493
-4.081677	automobile	-0.1100317
-4.247488	availability	-0.2946974
-4.022004	available	-0.06358761
-3.646557	average	-0.01894087
-4.247488	avoid	-0.09576336
-3.208521	award	-0.1577386
-4.060796	awarded	-0.06422275
-2.950086	awards	-0.391081
-4.060796	away	-0.03450796
-3.646557	ayn	-1.255279
-4.081677	b	-0.2612745
-3.881658	b.	-0.4609195
-3.494871	back	-0.4110181
-4.081677	bad	-0.1441391
-4.060796	bakunin	-0.1616546
-4.247488	ballot	-0.1557235
-4.081677	bank	-0.09063053
-4.081677	barbara	-0.2547591
-4.022004	base	-0.1705929
-3.39947	based	-0.752893
-3.83255	basic	-0.1628883
-3.788434	basis	-0.2504709
-3.516751	battle	-0.193631
-4.060796	battlefield	-0.221798
-3.564125	bc	-0.2092919
-2.557115	be	-0.3218393
-3.267534	became	-0.2211858
-3.219699	because	-0.4752456
-3.454163	become	-0.2299371
-4.060796	becomes	-0.07917107
-2.772684	been	-0.2180349
-3.208521	before	-0.2130475
-3.564125	began	-0.09342605
-4.060796	begin	-0.1612709
-3.788434	beginning	-0.2946152
-3.39947	behavior	-0.1927125
-4.247488	behavioral	-0.04959849
-3.83255	behaviors	-0.1402234
-4.247488	behaviour	-0.1060593
-4.060796	behind	-0.08098349
-3.110185	being	-0.07540336
-4.022004	beings	-0.09649966
-4.081677	belief	-0.1358702
-4.022004	beliefs	-0.2765394
-4.060796	believe	-0.302084
-3.589902	believed	-0.5385818
-4.247488	believing	-0.3295295
-4.247488	bell	-0.03414856
-4.060796	below	-0.1951626
-4.247488	belt	-0.1676421
-4.081677	benefits	-0.1194698
-3.166479	best	-0.3345337
-3.646557	better	-0.2917492
-3.07634	between	-0.1899207
-4.081677	bhai	-0.5636041
-3.788434	bill	-0.1271703
-4.081677	billion	-0.08150811
-4.247488	biologically	-0.4266296
-3.881658	biology	-0.1519948
-3.39947	birmingham	-0.2138985
-3.711727	birth	-0.2453332
-4.247488	birthday	-0.06277187
-4.247488	bitter	-0.1077514
-3.47404	black	-0.2640799
-4.081677	blacks	-0.06016105
-3.881658	blood	-0.1687078
-3.677921	body	-0.1277855
-4.247488	bolshevik	-0.05093475
-4.060796	bolsheviks	-0.1528697
-3.321297	book	-0.1074594
-3.788434	books	-0.05190639
-3.881658	booth	-0.05024648
-4.060796	border	-0.1342441
-3.748389	born	-0.1475968
-3.137421	both	-0.1645881
-3.881658	box	-0.2495168
-4.022004	boy	-0.1059514
-3.366494	brain	-0.1918318
-3.881658	branch	-0.1699403
-4.022004	branches	-0.1000581
-3.711727	branden	-0.05996883
-4.247488	breckinridge	-0.1007149
-4.022004	bring	-0.09203714
-4.022004	bringing	-0.08874646
-4.247488	briseis	-0.08702254
-4.247488	british	-0.1186141
-4.022004	broadcast	0.02075799
-3.83255	brought	0.002829663
-4.060796	buchanan	-0.05943391
-3.711727	buddhism	-0.1938807
-4.081677	budget	-0.08210455
-4.247488	built	-0.1830319
-4.247488	burnside	-0.1818121
-2.644073	but	-0.02163184
-2.239598	by	-0.3184246
-4.247488	c	-0.4776397
-4.022004	c.	-0.288605
-3.83255	cabinet	-0.03204332
-4.081677	call	0.003496319
-3.382669	called	-0.3309866
-4.081677	calls	-0.2148343
-3.646557	came	-0.3653368
-3.677921	campaign	-0.04752167
-2.99493	can	-0.4910231
-3.617306	candidate	-0.05177636
-3.881658	candidates	-0.06955695
-3.646557	cannot	-0.1901004
-4.081677	capable	-0.5491205
-3.617306	capital	-0.1847132
-3.646557	capitalism	-0.1813495
-3.711727	care	-0.1738367
-4.060796	career	-0.05000938
-4.060796	carolina	-0.1242305
-4.022004	carried	-0.1278943
-3.516751	case	-0.09745139
-3.677921	cases	-0.1564871
-4.060796	cast	-0.1273267
-3.677921	categories	-0.2809492
-3.83255	category	-0.1939762
-4.060796	causality	-0.08008048
-3.293584	cause	-0.06173807
-4.247488	caused	-0.1211999
-3.39947	causes	-0.1688153
-4.247488	celebrated	-0.07615384
-4.247488	cells	-0.07266984
-4.081677	cemetery	-0.2088252
-4.081677	census	0.00770051
-3.788434	center	-0.1081512
-3.539792	central	-0.09827901
-3.176614	century	-0.1566109
-3.788434	ceremonies	-0.0774168
-3.366494	ceremony	-0.2074222
-3.711727	certain	-0.0409902
-3.646557	chance	-0.1006211
-3.539792	change	-0.1064032
-3.881658	changed	-0.1058699
-3.711727	changes	-0.2713813
-3.881658	character	-0.1454767
-4.022004	characterized	-0.2605276
-4.247488	characters	-0.01089143
-4.060796	charles	-0.5871563
-4.022004	chicago	-0.1733252
-3.881658	chief	-0.06381855
-3.516751	child	-0.05641894
-3.617306	childhood	-0.2191196
-3.030056	children	-0.224699
-4.247488	choice	-0.07480942
-4.060796	christian	-0.1715331
-4.060796	christianity	-0.2885388
-3.881658	church	-0.2042051
-4.081677	cited	-0.2387181
-4.060796	cities	-0.2061161
-4.060796	citizens	-0.09109344
-3.208521	city	-0.1760397
-3.231173	civil	-0.9782405
-3.83255	claim	-0.1207148
-3.881658	claimed	-0.3222548
-4.247488	claiming	-0.09808527
-4.022004	claims	-0.4458213
-3.881658	class	-0.03730584
-3.748389	classical	-0.2795754
-4.060796	classification	-0.1764459
-4.247488	clay	-0.06528352
-4.081677	clear	-0.072745
-4.022004	clinical	-0.2255117
-3.83255	close	-0.2240482
-4.081677	closely	-0.09946706
-4.022004	cnt	-0.06630606
-4.060796	coast	-0.2044739
-4.022004	cognitive	-0.1359999
-4.247488	collectivism	-0.06446341
-3.788434	collectivist	-0.136906
-4.081677	college	-0.1481202
-4.022004	colleges	-0.1070256
-4.247488	color	-0.1770909
-4.022004	combined	-0.02611047
-3.788434	come	-0.2767162
-4.022004	comedy	-0.2439022
-4.022004	command	-0.1739828
-4.081677	commander	-0.25626
-4.247488	commercial	-0.05139398
-4.081677	commission	-0.07664797
-4.247488	committed	-0.1167542
-3.382669	common	-0.08629945
-4.060796	commonly	-0.08748397
-3.589902	communication	-0.1480549
-3.788434	communism	-0.1301958
-3.748389	communist	-0.05849943
-4.081677	communists	-0.06844378
-4.247488	communities	-0.07944278
-3.83255	community	-0.08566152
-4.060796	company	-0.05591595
-4.081677	compared	-0.2346186
-4.081677	compassion	-0.08570926
-4.081677	completed	-0.1506572
-3.788434	complex	-0.07584166
-4.247488	complexity	-0.1677346
-3.788434	composed	-0.1506063
-4.247488	composer	-0.0220229
-4.247488	composition	-0.09488404
-4.060796	compromise	-0.01572931
-4.247488	conceived	-0.08799928
-3.646557	concept	-0.6417062
-4.022004	conception	-0.3418351
-4.060796	concepts	-0.1186118
-4.247488	concern	-0.1823173
-4.081677	concerned	-0.08450555
-4.081677	concludes	-0.268935
-4.081677	conclusion	-0.2057967
-3.881658	conditions	-0.1428426
-4.022004	conducted	-0.06549151
-4.247488	confederacy	-0.172582
-3.564125	confederate	-0.3005653
-4.247488	conference	-0.1679973
-4.247488	confirmed	-0.1819034
-4.060796	conflict	-0.1551208
-3.539792	congress	-0.06529517
-4.022004	conservative	-0.02175812
-4.022004	consider	-0.0514694
-4.247488	considerable	-0.1185805
-3.435156	considered	-0.02216226
-4.247488	consistent	-0.1228699
-4.247488	consistently	-0.09728403
-3.39947	constitution	-0.1948032
-4.247488	construction	8.337945e-05
-4.081677	contact	-0.1461048
-4.081677	contain	-0.1473874
-4.022004	contains	-0.201544
-3.83255	contemporary	-0.1791673
-3.788434	continue	-0.337775
-3.83255	continued	-0.2097981
-4.247488	continues	-0.3258098
-4.022004	contract	-0.248997
-4.081677	contrary	-0.1453536
-4.081677	contrast	-0.3566214
-4.081677	contributed	-0.2724791
-4.247488	contribution	-0.3110938
-4.247488	contributions	-0.4862445
-3.516751	control	-0.3694536
-4.081677	controlled	-0.07727786
-4.060796	controversial	-0.1792934
-4.022004	convention	-0.3059565
-4.247488	copies	-0.1620862
-3.711727	core	-0.1505549
-4.081677	corporation	-0.1546945
-4.247488	corps	-0.03064674
-4.022004	corpus	-0.08436608
-4.022004	cortex	-0.1733773
-3.83255	cost	-0.2295499
-3.83255	cotton	-0.1223407
-3.366494	could	-0.2095063
-3.646557	counties	-0.1650607
-3.881658	country	-0.07319888
-3.366494	county	-0.3418956
-3.589902	court	-0.1230506
-4.247488	courts	-0.04057796
-4.247488	cousin	-0.08540072
-4.081677	crater	-0.06830031
-4.081677	create	-0.0760527
-3.677921	created	-0.01728401
-4.022004	creation	-0.2243805
-4.247488	credits	-0.1216919
-4.081677	criteria	-0.1730646
-3.881658	critical	-0.1695547
-4.081677	criticism	-0.2107906
-4.060796	criticized	-0.1081755
-4.081677	critics	-0.08042143
-4.247488	cross	-0.0885418
-4.247488	cult	-0.4797487
-4.060796	culture	-0.04632948
-4.247488	cure	-0.06135461
-3.83255	current	-0.1316942
-3.748389	currently	0.009405129
-4.081677	cut	-0.1542045
-4.247488	d	-0.2467792
-4.247488	daily	-0.05084686
-4.081677	damage	-0.166229
-4.247488	danube	-0.1037847
-3.748389	data	-0.1624015
-3.881658	date	-0.1513478
-4.247488	daughter	-0.002210751
-3.881658	davis	-0.146335
-3.539792	day	-0.01877289
-3.881658	days	-0.2234019
-4.022004	de	-0.4346164
-4.247488	dead	-0.07597241
-3.293584	death	-0.2788496
-4.247488	deaths	-0.1892177
-4.060796	debate	-0.1694998
-4.247488	debates	-0.05128614
-3.748389	december	-0.1453422
-3.788434	decided	-0.3684294
-4.081677	decision	-0.01502133
-4.022004	declaration	-0.2011178
-3.711727	declared	-0.1398483
-3.881658	dedicated	-0.2261073
-4.247488	deeply	-0.09212492
-4.060796	defeated	-0.1521661
-4.247488	defend	-0.2587007
-3.881658	deficits	-0.244196
-4.060796	defined	-0.1076245
-4.060796	defines	-0.1501583
-4.060796	degree	-0.2233827
-4.060796	del	-0.5871563
-4.081677	delay	-0.2715583
-4.247488	delivered	-0.1875791
-4.081677	democracy	-0.1145134
-4.022004	democrat	-0.1046637
-3.293584	democratic	-0.2947152
-3.711727	democrats	-0.1536964
-4.247488	denotes	-0.3070088
-4.247488	densuşianu	-0.1860107
-4.081677	department	-0.09121067
-4.081677	depending	-0.3673357
-4.247488	derived	-0.1654171
-3.564125	described	-0.1529142
-4.247488	describes	-0.01864533
-3.881658	design	-0.1358568
-4.247488	designed	-0.1802087
-4.247488	desire	-0.1582877
-3.564125	despite	-0.1860497
-4.247488	destruction	-0.2449027
-3.881658	determined	-0.07871962
-4.060796	develop	-0.09518737
-3.617306	developed	-0.1135584
-3.564125	development	-0.241856
-3.881658	developmental	-0.3346684
-3.83255	diagnosed	-0.2096325
-3.564125	diagnosis	-0.1926161
-3.748389	diagnostic	-0.2775308
-3.30722	did	-0.3714334
-3.677921	died	-0.1813236
-4.081677	differ	-0.2710128
-3.881658	difference	-0.1561908
-4.060796	differences	-0.3025357
-3.539792	different	-0.1625391
-4.060796	difficulties	-0.1312479
-4.081677	direct	-0.05124868
-4.247488	directed	-0.1890025
-3.788434	direction	-0.03215443
-4.022004	director	-0.1215221
-4.081677	directors	-0.245865
-4.081677	discovered	-0.1634918
-4.060796	disfranchised	-0.2044677
-3.677921	disorder	-0.1637634
-3.711727	disorders	-0.2672523
-4.081677	distance	-0.1525865
-4.022004	distinction	-0.1622014
-4.247488	distinguish	-0.04822595
-3.83255	distinguished	-0.1659742
-4.081677	disturbance	-0.06650037
-4.247488	diverse	-0.125896
-3.711727	divided	-0.2727428
-4.247488	division	-0.08690488
-3.242958	do	-0.3682024
-3.881658	doctrine	-0.09602001
-3.564125	document	-0.8454738
-3.494871	does	-1.049928
-3.748389	doing	-0.01915623
-4.247488	dominated	-0.1672212
-4.081677	donations	-0.06128769
-4.022004	done	-0.09520839
-3.617306	douglas	-0.1575857
-4.022004	down	-0.1003274
-4.081677	draft	-0.08589363
-4.081677	drama	-0.1382552
-4.060796	drawing	-0.08726227
-3.589902	due	-1.315195
-3.037435	during	-0.4779069
-4.060796	duty	-0.1137886
-3.711727	e	-1.097315
-4.247488	e.	-0.2661753
-3.30722	each	-0.2450298
-3.711727	earlier	-0.1347221
-3.881658	earliest	-0.07271418
-3.255072	early	-0.1394938
-3.881658	earth	0.001689382
-4.247488	easily	-0.1247594
-3.748389	east	-0.09540059
-4.060796	eastern	-0.1539263
-3.589902	economic	-0.3874972
-4.060796	economics	-0.2629021
-3.748389	economy	-0.2310975
-4.060796	edition	-0.2272131
-4.247488	educated	-0.1631953
-3.280364	education	-0.1347095
-4.081677	educational	-0.1778255
-3.677921	effect	-0.100067
-4.060796	effectiveness	-0.2903466
-3.617306	effects	-0.147107
-4.247488	efficient	-0.05101323
-3.83255	effort	-0.3040788
-4.022004	efforts	-0.2157196
-3.881658	egoism	-0.1132814
-4.247488	egoist	-0.09779131
-3.881658	eight	-0.09919737
-4.247488	eighth	-0.1070937
-3.564125	either	0.002261922
-3.748389	elected	-0.09130951
-3.416947	election	-0.06097339
-3.881658	elections	-0.1453415
-4.022004	electoral	-0.1246771
-3.748389	elements	-0.107423
-4.081677	eleven	-0.04837583
-4.247488	eligible	-0.276069
-3.788434	emancipation	-0.3210828
-4.081677	emerged	-0.1558022
-4.247488	emma	-0.4942304
-4.081677	emotional	-0.03190538
-4.247488	emotions	-0.1507906
-4.081677	emphasis	-0.3785242
-4.247488	empirical	-0.1185167
-4.247488	employment	-0.1969845
-3.293584	end	-0.647981
-3.788434	ended	-0.04248713
-4.081677	enemy	-0.1332299
-4.060796	engaged	-0.1609931
-4.081677	england	-0.1465747
-3.589902	english	-0.08891933
-4.247488	ensure	-0.1647167
-4.060796	environmental	-0.2215503
-3.788434	epic	-0.02696012
-4.247488	equal	-0.1064565
-4.081677	equality	0.009110995
-4.081677	errors	-0.08660066
-4.247488	esoteric	-0.1074732
-3.711727	especially	-0.155895
-4.022004	essentially	-0.07621025
-3.677921	established	-0.2123459
-4.247488	estimate	-0.07753825
-3.788434	estimated	-0.1640673
-4.060796	etc	-0.2866008
-3.881658	ethical	-0.05566023
-3.589902	ethics	-0.2472619
-3.881658	europe	-0.07034214
-3.881658	european	-0.08592934
-3.366494	even	-0.06669384
-4.022004	event	-0.05899216
-3.748389	events	-0.0734001
-3.788434	eventually	-0.09635948
-3.881658	ever	-0.04884852
-3.564125	every	-0.08169276
-4.247488	everything	-0.1049472
-3.366494	evidence	-0.3704323
-4.247488	evolution	-0.2924647
-4.081677	evolutionary	-0.1100734
-4.247488	exact	-0.1260942
-3.255072	example	-0.8811967
-4.081677	except	-0.3824857
-4.081677	execution	-0.1314253
-3.646557	executive	-0.2010555
-4.247488	exercised	-0.0922551
-4.022004	exist	-0.09418266
-4.247488	existed	-0.08580838
-4.081677	existence	-0.188284
-4.081677	exists	-0.02140462
-4.060796	exoteric	-0.2099134
-3.83255	expansion	-0.3696631
-4.247488	expect	-0.1633052
-4.060796	experience	-0.06470434
-4.247488	experiences	-0.2497776
-4.247488	experimental	-0.1260936
-4.247488	explained	-0.1681423
-4.247488	explaining	-0.06696533
-4.247488	expressed	-0.083086
-4.060796	expression	-0.4189302
-4.247488	extant	-0.1185184
-4.060796	extended	-0.05921066
-4.247488	extension	-0.1507378
-4.247488	extensive	-0.09815152
-4.081677	extent	-0.1309767
-4.022004	extreme	-0.1371639
-3.83255	eye	-0.199624
-3.881658	face	-0.09078155
-4.022004	fact	-0.441762
-4.022004	factors	-0.09723826
-3.788434	failure	-0.3427089
-4.060796	fall	-0.1651051
-4.247488	families	-0.08771311
-3.435156	family	-0.1233732
-3.748389	famous	-0.1821571
-3.617306	far	-0.02054255
-4.081677	farmers	-0.1353057
-4.247488	fascism	-0.1414858
-4.247488	fate	-0.0710424
-3.47404	father	-0.1789978
-4.081677	favored	-0.008401863
-4.247488	features	-0.08307858
-3.494871	february	-0.4366743
-3.589902	federal	-0.1385935
-4.022004	federation	-0.2135571
-4.060796	feel	-0.1463112
-4.022004	felt	-0.04294997
-4.247488	female	-0.1215549
-4.247488	feminism	-0.0725805
-4.081677	feminist	-0.009168506
-4.247488	feminists	-0.1575535
-4.081677	ferrer	-0.1720453
-3.293584	few	-0.1985471
-3.711727	fiction	-0.1384744
-4.060796	field	-0.08358501
-3.881658	fields	-0.1319138
-4.247488	fifty	-0.2161172
-3.711727	fight	0.01041076
-4.060796	fighting	-0.01342651
-4.060796	figure	-0.06762181
-4.060796	figures	-0.0662102
-3.231173	film	-0.09439953
-3.677921	films	-0.1251724
-3.881658	final	-0.199361
-4.081677	finally	-0.2124742
-4.081677	financial	-0.1099004
-4.060796	find	-0.09108923
-4.081677	fire	-0.08787932
-2.715884	first	-0.04506497
-4.247488	fish	-0.08879815
-4.022004	fitness	-0.2380522
-3.711727	five	-0.1507708
-4.247488	flat	-0.3098976
-4.060796	florida	-0.1758617
-3.788434	focus	-0.3893052
-3.711727	focused	-0.7175799
-4.022004	focuses	-0.5082844
-4.247488	follow	-0.09030392
-4.022004	followed	-0.4359797
-3.711727	following	-0.1184036
-4.060796	food	-0.149097
-2.16366	for	-0.3400466
-3.788434	force	-0.133001
-3.83255	forces	-0.08493472
-3.881658	foreign	-0.0730503
-3.015663	form	-0.3250384
-3.564125	formal	-0.2130717
-4.060796	formed	-0.2034187
-4.022004	former	-0.08763613
-3.416947	forms	-0.404042
-4.247488	fort	-0.4266296
-4.081677	fought	-0.2241831
-3.176614	found	-0.3325723
-3.881658	founded	-0.2123572
-4.081677	founding	-0.09281495
-3.881658	fountainhead	-0.9451255
-3.494871	four	-0.09208599
-4.060796	fourth	-0.09445275
-3.881658	fragments	-0.1159423
-4.247488	france	-0.2484306
-3.242958	free	-0.1713439
-4.022004	freed	-0.2476105
-3.788434	freedom	-0.06471014
-3.617306	french	-0.1062744
-4.081677	frequent	-0.00922934
-3.881658	frequently	-0.1271941
-4.081677	friedrich	-0.3212829
-4.081677	friend	-0.1747965
-3.677921	friends	-0.3073297
-2.468335	from	-0.3388754
-4.060796	front	-0.1526623
-4.247488	full	-0.1041428
-3.748389	function	-0.04048412
-3.881658	functional	-0.3806166
-4.022004	functioning	-0.06562738
-4.247488	fundamental	-0.05121533
-4.022004	funeral	-0.1828996
-3.748389	further	-0.1195927
-3.711727	future	-0.006278664
-4.060796	g	-0.6381664
-4.060796	gain	-0.05748453
-4.081677	gained	-0.2023393
-4.060796	game	-0.01791689
-4.247488	games	-0.09071964
-3.711727	gave	-0.07742102
-4.022004	gene	-0.1384603
-3.255072	general	-0.1988109
-3.39947	generally	-0.1055623
-4.081677	generated	-0.09757356
-4.060796	generation	-0.1882209
-4.247488	generic	-0.1007149
-4.060796	genes	-0.06641288
-3.516751	genetic	-0.1312079
-4.022004	genetics	-0.172933
-4.247488	geography	-0.06427751
-3.494871	george	-0.3083757
-3.788434	georgia	-0.03363332
-3.881658	german	-0.0792323
-3.646557	gershwin	-0.1122345
-3.83255	get	-0.0930149
-3.677921	gettysburg	-0.2684673
-3.788434	give	-0.09502473
-3.677921	given	-0.02230148
-4.247488	gives	-0.2365798
-3.677921	giving	-0.07151934
-4.247488	glory	-0.08460428
-4.247488	go	-0.1833699
-3.677921	goal	-0.1649517
-3.539792	god	-0.1053572
-3.83255	godwin	-0.08167564
-4.081677	gold	-0.1632774
-4.060796	goldman	-0.2851169
-3.39947	good	-0.009623781
-4.247488	goods	-0.08895921
-3.366494	government	-0.08495453
-3.47404	governor	-0.0878157
-3.435156	grant	-0.1113379
-3.516751	great	-0.1064985
-3.589902	greater	-0.0933217
-3.788434	greatest	-0.1295168
-4.081677	greatly	-0.3212963
-3.335846	greek	-0.3174044
-4.022004	greeks	-0.05579883
-3.881658	grew	-0.2173449
-3.881658	grief	-0.109432
-4.081677	grounds	-0.2518585
-3.47404	group	-0.1445576
-3.589902	groups	-0.1445029
-4.247488	growing	-0.09815152
-3.83255	growth	-0.01274416
-4.247488	guided	-0.1905338
-3.788434	gulf	-0.3669692
-4.022004	guru	-0.1787007
-2.67203	had	-0.2722452
-4.022004	half	-0.1401311
-4.081677	hall	0.00702437
-3.748389	hand	-0.1079538
-4.247488	happens	-0.1113272
-3.83255	happiness	-0.1005192
-4.060796	happy	-0.1040436
-3.881658	hard	-0.235232
-2.726665	has	-0.3057367
-2.526226	have	-0.3511225
-3.748389	having	-0.08934084
-2.415481	he	-0.4021454
-4.022004	head	-0.150097
-4.022004	headquartered	-0.5138645
-4.060796	headquarters	-0.2302746
-4.081677	heal	-0.1043376
-3.83255	health	-0.2018205
-4.022004	heavy	-0.160502
-3.516751	hector	-0.0249085
-3.881658	heel	-0.2037345
-3.255072	held	-0.1942318
-3.711727	help	-0.1071291
-4.247488	helped	-0.1183632
-4.247488	hence	-0.1680408
-3.83255	henry	-0.5022947
-2.650132	her	-0.1276761
-4.081677	hera	-0.06465015
-3.83255	here	-0.04473852
-3.83255	hero	-0.06143999
-4.247488	heroes	-0.002523459
-4.060796	heroic	-0.155545
-3.454163	high	-0.4372353
-3.677921	higher	-0.2210656
-4.022004	highest	-0.1430877
-3.83255	highly	-0.1523035
-3.07634	him	-0.2930913
-3.494871	himself	-0.09813397
-2.279293	his	-0.29364
-4.060796	historian	-0.1819897
-4.247488	historians	-0.1825718
-4.081677	historic	-0.3021072
-4.081677	historical	-0.0513226
-3.293584	history	-0.5175922
-3.881658	hold	-0.1159708
-4.247488	holding	-0.01235205
-4.022004	holiday	-0.2290525
-3.539792	hollywood	-0.1223081
-3.748389	home	0.005890206
-4.247488	homer	-0.2630437
-3.83255	honor	-0.1172703
-4.247488	honoring	-0.0934073
-4.022004	horns	-0.09130815
-4.022004	hospital	-0.09481955
-4.081677	hotel	-0.1478917
-4.247488	hour	-0.1256804
-3.366494	house	-0.1165843
-3.416947	how	-0.1048941
-3.137421	however	-0.8558106
-3.677921	human	-0.1543749
-4.247488	humanity	-0.08756626
-3.881658	humans	-0.1086276
-3.748389	huntsville	-0.1453858
-4.060796	husband	0.01526669
-4.081677	hypothesis	-0.09250168
-4.060796	hypothesizes	-0.6513306
-3.037435	i	-0.3823952
-4.081677	idea	-0.1391295
-3.39947	ideas	-0.1037605
-4.247488	identify	-0.1770957
-3.197623	if	-0.1273874
-3.881658	ii	-0.204677
-4.247488	iii	-0.3056555
-3.788434	iliad	-1.032276
-3.39947	illinois	-0.1380068
-4.060796	image	-0.07646689
-4.247488	imaging	-0.09927341
-3.788434	imitation	-0.1159304
-4.060796	immune	-0.09001324
-4.060796	impact	-0.2276955
-3.881658	impairment	-0.210471
-4.060796	impairments	-0.1816383
-3.881658	importance	0.02044101
-3.454163	important	-0.03718691
-1.646539	in	-0.5348876
-4.060796	inaugural	-0.4505089
-3.39947	include	-0.2972664
-3.788434	included	-0.1029181
-4.060796	includes	-0.189338
-3.219699	including	-0.1178001
-3.711727	income	-0.2592582
-4.247488	incorporated	-0.1040503
-3.539792	increase	-0.1850874
-3.83255	increased	-0.02763528
-3.83255	increasingly	-0.180026
-3.83255	independence	-0.1815135
-4.022004	independent	-0.1446688
-4.081677	independently	-0.07216103
-3.255072	individual	-0.1052798
-3.47404	individualist	-0.551134
-3.242958	individuals	-0.3013811
-3.83255	industrial	-0.103697
-3.788434	industry	-0.07067482
-3.39947	influence	-0.3116936
-4.081677	influenced	-0.09560292
-4.060796	influential	-0.05873182
-4.247488	information	-0.1066743
-3.83255	initially	-0.0518725
-4.247488	inland	-0.2531741
-4.247488	insistence	-0.1732769
-3.83255	inspired	-0.2622829
-4.247488	instance	-0.09777837
-3.589902	instead	-0.1010356
-3.83255	institute	-0.126357
-4.247488	insurance	-0.02215167
-4.022004	intellectual	-0.2144386
-4.022004	intended	-0.2686509
-4.081677	interaction	-0.1379859
-4.081677	interactions	-0.1511803
-3.539792	interest	-0.3116841
-3.617306	interests	-0.189686
-4.247488	internal	-0.1260782
-3.242958	international	-0.16958
-4.081677	intervention	-0.1060721
-4.081677	interventions	-0.2622983
-2.988233	into	-0.318665
-3.788434	introduced	-0.07990947
-4.060796	invited	-0.08383197
-3.881658	involved	-0.2960055
-4.247488	iq	-0.1258307
-2.088036	is	-0.2962563
-4.247488	islam	-0.08421177
-3.366494	island	-0.1313386
-4.022004	issue	-0.09054969
-3.748389	issues	-0.01718999
-2.466333	it	-0.3901556
-4.081677	italian	-0.1187456
-2.877398	its	-0.2519658
-3.646557	itself	-0.0368188
-4.247488	jackson	-0.08580838
-4.060796	james	-0.2489227
-3.677921	january	-0.2549382
-4.081677	jefferson	-0.1536707
-4.081677	jim	-0.4960015
-4.247488	job	-0.04731458
-4.060796	jobs	-0.1194286
-3.516751	john	-0.5393392
-4.060796	johnson	-0.2771852
-4.081677	join	-0.1246637
-4.081677	joined	-0.3628727
-4.081677	joseph	-0.3021297
-4.247488	journal	-0.09196444
-4.247488	judaism	-0.1523622
-4.081677	july	-0.2409122
-3.788434	just	-0.0191073
-4.247488	justice	-0.1614185
-4.081677	kanhaiya	-0.07351796
-4.247488	kanner	-0.1764494
-4.247488	kansas	-0.1626087
-4.022004	kant	-0.1801728
-3.748389	karma	-0.1890873
-3.677921	kentucky	-0.2765879
-4.081677	key	-0.1186384
-3.617306	killed	-0.2139482
-3.83255	killing	-0.1695417
-4.081677	kind	-0.2124156
-3.564125	king	-0.1452694
-4.247488	kings	-0.169307
-4.022004	know	-0.08367704
-3.748389	knowledge	-0.4002073
-3.176614	known	-0.3406993
-4.081677	labor	-0.1398163
-3.711727	labour	-0.2399887
-3.83255	lack	-0.2474981
-3.539792	land	-0.1584192
-3.335846	language	-0.1416548
-4.247488	languages	-0.1649503
-3.539792	large	-0.1256686
-3.788434	largely	-0.2024419
-3.516751	largest	-0.08701248
-3.748389	last	-0.03446847
-3.564125	late	-0.2309256
-3.092933	later	-0.112018
-3.788434	latin	-0.1095483
-4.022004	latter	0.004291326
-3.382669	law	-0.1701918
-3.711727	laws	-0.1037112
-4.060796	lawyer	-0.3709486
-3.83255	lead	-0.2031686
-4.060796	leader	-0.04316191
-3.711727	leaders	-0.1192804
-3.83255	leading	-0.1201043
-4.247488	league	-0.2492589
-4.081677	learning	-0.1433118
-3.788434	least	-0.1209035
-4.060796	lecture	-0.08361094
-3.454163	led	-0.4017287
-3.711727	lee	-0.1980709
-3.47404	left	-0.06467018
-4.060796	leg	-0.04462036
-4.060796	legal	-0.00884182
-4.081677	legislation	-0.07849835
-4.022004	legislative	-0.09231635
-3.416947	legislature	-0.1407868
-4.247488	length	-0.153354
-4.060796	leonard	-0.3829338
-3.47404	less	-0.2177719
-3.516751	letter	-0.06937905
-4.060796	letters	-0.1140875
-3.83255	leuce	-0.2697966
-3.564125	level	-0.2202324
-3.788434	libertarian	-0.08422919
-4.022004	libertarianism	-0.3183451
-4.081677	liberty	-0.2372239
-4.060796	library	-0.06863465
-3.146893	life	-0.3888493
-3.39947	like	-0.1283609
-3.677921	likely	-0.485117
-3.711727	limited	-0.07877488
-2.391285	lincoln	-0.2656892
-4.060796	lincolns	-0.3296852
-3.788434	line	-0.03689201
-4.247488	links	-0.1611167
-3.83255	list	-0.0986232
-3.83255	literary	-0.1441426
-4.081677	literature	-0.09268353
-3.748389	little	-0.1920115
-3.711727	live	-0.1157485
-4.081677	lived	-0.06717046
-4.060796	lives	-0.1055412
-3.454163	living	-0.1726776
-3.564125	local	-0.3797792
-3.788434	located	-0.2318626
-4.247488	location	-0.3191786
-3.454163	logic	-0.1306236
-3.589902	long	-0.1329291
-4.060796	look	-0.3145224
-4.060796	lord	-0.06908095
-3.788434	los	-1.041322
-4.081677	loss	-0.3713311
-3.564125	lost	-0.1019752
-3.242958	love	-0.03694864
-3.711727	low	-0.1991008
-4.060796	lower	-0.1776402
-4.081677	lowest	-0.166272
-4.247488	lt.	-0.4941224
-4.060796	lyceum	-0.1334192
-4.247488	lycomedes	-0.3092549
-4.081677	m	-0.1550671
-4.247488	m.	-0.2662452
-3.186991	made	-0.0251819
-3.677921	main	-0.2157305
-4.247488	maintained	-0.1709944
-3.435156	major	-0.2436624
-3.539792	majority	-0.1627374
-3.711727	make	-0.209924
-4.060796	makes	-0.1343405
-4.022004	making	-0.06956587
-4.247488	malatesta	-0.0832103
-4.060796	male	-0.1344748
-3.435156	man	0.05001184
-4.247488	managed	-0.09929486
-4.247488	mankind	-0.1050377
-4.022004	manufacturing	-0.1529358
-4.081677	manuscripts	-0.07773845
-2.893125	many	-0.2678673
-3.47404	march	-0.225136
-4.247488	marked	-0.1000661
-4.081677	market	-0.10141
-4.060796	marriage	0.01078708
-4.022004	married	-0.112758
-4.247488	marx	-0.1795882
-4.081677	marxist	-0.04968447
-3.788434	mary	-0.09355954
-4.060796	maryland	-0.2206841
-4.247488	material	-0.1126331
-4.247488	mathematics	-0.05629431
-3.646557	matter	-0.2785543
-2.988233	may	-0.4144734
-3.646557	mcclellan	-0.2443556
-4.247488	mean	-0.001718894
-3.711727	meaning	-0.3039622
-3.646557	means	-0.1747782
-3.881658	measures	-0.1283637
-4.247488	mechanism	-0.1616538
-4.060796	media	0.01986976
-3.748389	medical	-0.07471263
-4.060796	medicine	-0.1449276
-4.081677	medieval	-0.05122848
-4.022004	member	-0.2520943
-3.30722	members	-0.3375241
-4.022004	membership	-0.0366926
-4.247488	memnon	-0.1670615
-4.247488	memorial	-0.1142846
-3.39947	men	-0.03094974
-3.788434	mental	-0.3282906
-3.83255	met	-0.03022274
-3.589902	metaphysics	-0.3905787
-3.677921	method	-0.06893073
-4.247488	methods	-0.01751649
-4.022004	mexico	-0.1625736
-3.881658	mid	-0.4278119
-3.83255	middle	-0.2011709
-3.881658	might	-0.06190482
-3.617306	military	-0.2158092
-3.539792	million	-0.1504342
-3.881658	mind	-0.0765183
-4.247488	minor	-0.03184016
-4.247488	minority	-0.1004797
-3.646557	mississippi	-0.0499033
-4.060796	missouri	-0.2926967
-3.881658	mns	-0.1287943
-3.589902	mobile	-0.09217419
-4.060796	model	-0.2042008
-3.208521	modern	-0.1876869
-4.022004	money	-0.06790524
-3.788434	montgomery	-0.1628359
-3.539792	months	-0.21382
-3.47404	moral	-0.2769171
-4.247488	morality	-0.1500813
-2.824164	more	-0.3678699
-4.247488	moreover	-0.4704074
-2.784993	most	-0.3323896
-3.881658	mostly	-0.22959
-4.022004	mother	-0.1916628
-3.748389	motion	-0.2373354
-4.060796	motor	-0.08267466
-4.022004	move	-0.07139316
-3.711727	moved	-0.2700312
-3.30722	movement	-0.1210747
-3.589902	movements	-0.0633356
-4.081677	movie	-0.1762412
-4.081677	movies	-0.07149715
-3.589902	much	-0.1769615
-4.060796	multiple	-0.1821001
-4.247488	museum	-0.1582951
-3.748389	music	-0.06842491
-3.39947	must	-0.4648079
-4.081677	mutations	-0.08784262
-4.081677	my	-0.1097179
-3.267534	name	-0.1669673
-3.516751	named	-0.1848734
-4.081677	namely	-0.194267
-4.081677	names	-0.1286182
-3.788434	nathaniel	-0.806829
-3.335846	nation	-0.3239653
-3.137421	national	-0.2197907
-4.022004	native	-0.09048113
-3.321297	natural	-0.1737304
-3.83255	nature	-0.02006498
-4.060796	nbc	-0.03916057
-3.748389	near	-0.1749671
-3.711727	nearly	-0.2027703
-4.081677	necessary	-0.08693027
-4.022004	need	-0.151917
-3.881658	needed	-0.1157729
-4.022004	negative	-0.06976003
-4.247488	neighbour	-0.06990437
-4.081677	neither	-0.05049296
-4.247488	neoptolemus	-0.07423434
-4.081677	nestor	-0.07864424
-4.247488	net	-0.05127919
-4.060796	network	-0.06856605
-4.081677	neural	-0.3020353
-3.539792	never	-0.1397903
-2.944042	new	-0.4259833
-4.081677	newspaper	-0.08199468
-3.83255	next	-0.1928206
-4.081677	nietzsche	-0.1231562
-4.060796	night	-0.2058063
-4.247488	nine	-0.02338113
-4.022004	nineteenth	-0.5019658
-3.092933	no	-0.1161378
-3.788434	nomination	-0.2306336
-4.060796	nominees	-0.2964195
-3.589902	non	-1.226992
-4.022004	none	-0.3684012
-4.081677	nor	-0.02063431
-3.3509	north	-0.1371602
-4.247488	northeast	-0.06884581
-3.788434	northern	-0.157175
-4.247488	nos	-0.091033
-2.512678	not	-0.1195527
-3.83255	notable	-0.1257586
-4.060796	note	-0.2736639
-4.060796	noted	-0.3168496
-4.060796	notes	-0.2236367
-4.081677	nothing	-0.06836472
-4.247488	noting	-0.4908039
-4.060796	notion	-0.3094701
-3.617306	novel	-0.2110812
-4.060796	novels	-0.1284561
-3.788434	november	-0.2372959
-3.47404	now	-0.1771345
-3.335846	number	-0.9109415
-4.081677	numbers	-0.09274623
-3.748389	numerous	-0.1999492
-3.748389	object	-0.09155805
-4.022004	objectivism	-0.162082
-3.881658	objectivist	-0.03973354
-4.060796	objects	-0.2074961
-4.060796	observation	-0.06186057
-4.022004	observations	-0.1501826
-4.247488	observed	-0.08887868
-4.081677	occasionally	-0.07926156
-4.081677	occupied	-0.1096588
-4.081677	occur	-0.09078267
-4.081677	occurs	-0.1637388
-4.022004	october	-0.1046141
-3.677921	odysseus	-0.1648213
-1.483071	of	-0.4046534
-4.060796	off	-0.1244504
-4.081677	offer	-0.08363634
-4.060796	offered	-0.1157646
-3.748389	office	-0.1228806
-4.081677	offices	-0.2427848
-4.060796	official	-0.09809104
-3.255072	often	-0.2461144
-3.589902	old	-0.02178807
-4.060796	older	-0.2430821
-4.247488	oldest	-0.1179847
-2.263979	on	-0.3760342
-3.788434	once	-0.1856267
-2.730319	one	-0.2506015
-2.944042	only	-0.1028687
-3.83255	open	-0.1422559
-4.081677	opponents	-0.06397003
-4.247488	oppose	-0.1675188
-3.564125	opposed	-0.139983
-3.881658	opposition	-0.2906075
-2.472368	or	-0.1119088
-3.83255	oracle	-0.1074759
-4.081677	orchestra	-0.06132182
-3.711727	order	-0.2111498
-4.247488	organisation	-0.08401241
-4.247488	organised	-0.04793643
-3.788434	organization	-0.004150003
-4.247488	organizations	-0.1423784
-4.247488	organized	-0.09642183
-4.247488	origin	-0.1507378
-3.677921	original	-0.09403724
-4.060796	originally	-0.06792247
-4.247488	origins	-0.2924647
-3.335846	oscar	-0.1820644
-3.881658	oscars	-0.1614696
-2.695092	other	-0.1261076
-3.060357	others	-0.2090227
-3.516751	our	-0.1752387
-3.293584	out	-0.1165884
-3.788434	outside	-0.2161094
-3.068275	over	-0.1188315
-4.247488	overall	-0.1187256
-4.247488	owens	-0.309977
-3.293584	own	-0.1719898
-4.060796	ownership	-0.2976889
-4.247488	pacific	-0.07737332
-4.060796	paper	-0.04335908
-4.247488	parent	-0.09816796
-3.881658	parents	-0.0994547
-3.589902	paris	-0.2212216
-4.081677	park	-0.1653638
-3.156575	part	-0.6441453
-3.382669	particular	-0.1547624
-4.060796	particularly	-0.1813185
-4.022004	parties	-0.06677233
-4.060796	partly	-0.313925
-3.83255	parts	-0.3663958
-3.110185	party	-0.1136555
-4.060796	passage	-0.4258817
-4.022004	passed	-0.06419957
-4.060796	paterson	-0.07344331
-3.677921	patroclus	-0.08925986
-4.247488	patterns	-0.05775176
-4.247488	pausanias	-0.08133153
-4.060796	pay	-0.1852044
-3.881658	pdd	-0.2507176
-4.081677	peleus	0.0152828
-4.247488	peninsula	-0.2728383
-3.084557	people	-0.1274161
-3.564125	per	-0.3695696
-3.83255	percent	-0.2759411
-3.881658	perform	-0.01728645
-4.022004	performance	-0.2321216
-4.247488	performed	-0.03173161
-4.081677	perhaps	-0.07837818
-3.516751	period	-0.1265794
-4.247488	permission	-0.2517756
-4.081677	perpetual	-0.1292542
-3.494871	person	-0.2460064
-3.748389	personal	-0.07631729
-4.081677	persons	-0.09412268
-4.081677	phenomena	-0.09209269
-3.589902	philosopher	-0.05328198
-3.646557	philosophers	-0.08862826
-3.321297	philosophical	-0.2041701
-3.092933	philosophy	-0.2279291
-4.247488	physical	-0.1934276
-3.83255	physics	-0.2962518
-3.516751	picture	-0.1121376
-4.081677	pictures	-0.1362385
-3.539792	place	-0.01487377
-3.83255	placed	-0.1651379
-4.081677	places	-0.05898986
-4.060796	plan	-0.05728982
-4.081677	planning	-0.1149871
-4.247488	plans	-0.07345372
-3.881658	plant	-0.128723
-4.247488	plantations	-0.009417087
-4.022004	plants	-0.1206166
-4.022004	platform	-0.1447201
-3.47404	plato	-0.1395192
-3.617306	play	-0.1631542
-4.060796	played	-0.2396955
-4.247488	playing	-0.1583915
-4.247488	plot	-0.01470319
-4.022004	poem	-0.1504071
-4.247488	poet	-0.2467792
-4.247488	poetics	-0.3078071
-4.022004	poetry	-0.1993974
-3.646557	point	0.03135115
-4.247488	police	-0.2382595
-3.677921	policy	-0.08486211
-3.208521	political	-0.2267212
-3.382669	politics	-0.1158295
-4.247488	polk	-0.04706674
-4.247488	polyxena	-0.1551641
-3.788434	poor	-0.1879345
-4.022004	pope	-0.1619199
-3.711727	popular	-0.2212269
-4.247488	popularity	-0.04891677
-3.47404	population	-0.2400002
-4.247488	port	-0.07730392
-4.247488	portion	-0.3158104
-3.83255	position	-0.1477561
-3.788434	positive	-0.1917605
-4.247488	possess	-0.06870967
-4.247488	possessed	-0.1601807
-4.081677	possibility	-0.3517103
-3.677921	possible	-0.09350386
-4.022004	possibly	-0.06944806
-3.748389	post	-1.075724
-3.881658	potential	0.003424391
-3.788434	potentiality	-0.07748085
-4.060796	potomac	-0.06723493
-3.539792	power	-0.1767392
-4.247488	powerful	-0.1042341
-4.022004	practical	-0.02253444
-3.711727	practice	-0.00360246
-4.247488	pre	-0.4908108
-4.060796	presence	-0.1239054
-4.022004	present	-0.06757574
-3.711727	presented	-0.1892929
-4.247488	preserve	-0.1613449
-4.022004	presidency	-0.135385
-3.255072	president	-0.1401678
-3.711727	presidential	-0.2723249
-4.022004	prevalence	-0.3429284
-4.081677	prevent	-0.1099796
-3.748389	previous	-0.1856742
-4.060796	priam	-0.1881294
-4.022004	price	-0.08009557
-4.060796	primarily	-0.148107
-3.748389	primary	-0.08951792
-4.060796	principle	-0.02991311
-4.060796	principles	-0.1610436
-4.247488	print	-0.09997552
-3.748389	prior	-0.6728777
-3.646557	private	-0.1507078
-4.081677	pro	-0.5601828
-4.247488	probably	-0.003478073
-4.247488	problem	-0.2946974
-4.081677	problems	-0.09287681
-4.060796	processes	-0.2076918
-4.081677	processing	-0.1090679
-3.748389	proclamation	-0.1720629
-4.081677	produce	-0.1450089
-3.677921	produced	-0.2215656
-3.677921	production	-0.2008191
-4.060796	products	-0.1789406
-4.247488	professional	-0.2658799
-4.081677	professionals	-0.1660239
-4.081677	profound	-0.05108175
-3.881658	program	-0.1417004
-3.748389	programs	-0.002200082
-4.081677	prominent	-0.1094837
-4.081677	promote	-0.2551221
-4.022004	promoted	-0.04691917
-3.83255	proper	-0.08052166
-3.589902	property	-0.2127828
-3.677921	proposed	0.01160751
-4.081677	protect	-0.2551511
-4.060796	proudhon	-0.1291577
-4.081677	provided	-0.07253981
-4.081677	psychology	-0.1362784
-3.435156	public	-0.1892987
-4.022004	publication	-0.1351782
-4.022004	publicly	-0.06060627
-3.564125	published	-0.4514493
-3.788434	purpose	-0.3054217
-3.881658	put	-0.1794559
-4.247488	qualify	-0.08870295
-3.881658	quality	-0.2302104
-4.081677	question	-0.06687655
-4.060796	questions	-0.198391
-4.060796	quoted	-0.1340819
-3.788434	radical	-0.1583405
-4.022004	rage	-0.08465527
-4.247488	railroad	-0.08214274
-4.247488	raised	-0.09429156
-2.698489	rand	-0.2795546
-4.247488	ranging	-0.3321082
-3.881658	ranks	-0.03552488
-3.748389	rare	-0.2688863
-4.060796	rate	-0.2079648
-3.454163	rather	-0.8204831
-4.247488	rating	-0.07730587
-4.247488	ratings	-0.1688082
-3.881658	rational	-0.2222239
-4.081677	re	-0.5601828
-3.788434	read	-0.001452655
-4.247488	reader	-0.101768
-4.081677	readers	0.005720742
-4.081677	reading	0.02438495
-4.247488	real	-0.0471957
-4.247488	realized	-0.3049555
-3.589902	reason	-0.07445538
-4.081677	reasoning	-0.07305641
-4.081677	reasons	-0.1497549
-4.247488	rebellion	-0.07474136
-4.081677	receive	-0.1355548
-3.677921	received	-0.02268571
-4.081677	recent	-0.1036518
-4.247488	recently	-0.1662255
-4.247488	recognize	-0.0132679
-4.060796	recognized	-0.08393927
-3.711727	reconstruction	-0.230603
-4.060796	recorded	-0.2050724
-4.247488	recording	-0.0270827
-4.081677	red	-0.2097515
-4.022004	reference	-0.5162551
-4.022004	referred	-0.4942313
-4.247488	referring	-0.3255315
-3.83255	refers	-1.064851
-3.788434	refused	-0.3015593
-4.081677	regard	-0.1654072
-3.788434	regarded	-0.2097719
-4.060796	regarding	-0.1393736
-3.83255	region	-0.03959805
-3.881658	regional	-0.4483242
-3.83255	rejected	-0.06402408
-3.47404	related	-0.3403307
-4.022004	relation	-0.2339268
-3.539792	relationship	-0.2958395
-4.060796	relationships	-0.1757478
-4.247488	relatives	-0.06513664
-3.83255	released	-0.1815693
-4.247488	releases	-0.1745209
-3.748389	religion	-0.1416582
-3.83255	religious	-0.1669694
-4.247488	remained	-0.2147896
-4.060796	remains	-0.086301
-4.247488	renaissance	-0.24267
-3.788434	repetitive	-0.3466433
-4.081677	replied	-0.2575617
-4.247488	report	-0.1090622
-3.646557	reported	-0.05400039
-3.788434	reports	-0.09260058
-4.022004	representatives	-0.2480352
-4.022004	represented	-0.04516715
-3.186991	republican	-0.2871888
-4.081677	republicanism	-0.2041768
-3.494871	republicans	-0.05568159
-4.247488	reputation	-0.1735274
-4.081677	require	-0.1415858
-4.081677	required	-0.03069402
-4.022004	requires	-0.2117191
-3.47404	research	-0.192949
-4.022004	researchers	-0.07074301
-4.247488	resistance	-0.3015703
-4.247488	resolution	-0.1229317
-4.247488	respect	-0.182184
-4.081677	respectively	-0.3698709
-4.247488	respond	-0.1166482
-3.677921	response	-0.808445
-4.060796	responsible	-0.6518053
-3.83255	rest	-0.2019379
-4.060796	restricted	-0.1859171
-3.539792	result	-0.2030767
-4.060796	resulted	-0.6448823
-3.83255	resulting	-0.3866735
-3.617306	results	-0.1735374
-4.081677	retardation	-0.2084534
-3.881658	return	-0.1052708
-3.711727	returned	-0.6325215
-4.247488	revenue	-0.1613375
-4.247488	review	-0.1594201
-4.247488	reviewed	-0.1546096
-3.646557	reviews	-0.1062908
-4.247488	revival	-0.4797487
-3.748389	revolution	-0.1141238
-3.646557	revolutionary	-0.149149
-4.081677	reward	-0.1482514
-3.881658	rhetoric	-0.09913038
-4.022004	richmond	-0.13595
-3.711727	right	-0.128733
-3.30722	rights	-0.1566191
-4.060796	rise	-0.3077242
-3.83255	risk	-0.08678354
-3.516751	river	-0.1306132
-4.247488	rivers	-0.1497943
-3.711727	robert	-0.2805405
-3.711727	role	-0.3402044
-4.247488	romantic	-0.1077132
-4.247488	roosevelt	-0.1668805
-4.247488	rosenbaum	-0.07974942
-4.247488	roughly	-0.05039914
-4.247488	round	-0.1756758
-4.081677	rule	-0.09435408
-4.060796	rules	-0.09658233
-3.788434	run	-0.0553211
-4.081677	running	-0.08331237
-3.748389	rural	-0.08669872
-4.060796	russell	-0.06631213
-3.881658	russia	-0.1573372
-4.022004	russian	-0.08751438
-4.247488	s	-0.02976686
-4.022004	s.	-0.2883435
-4.247488	sacrifice	-0.09091642
-3.494871	said	-0.1740863
-3.83255	sake	-0.3259903
-3.881658	salem	-0.1179279
-4.081677	sales	-0.09688571
-3.47404	same	-0.1052251
-3.881658	sangamon	-0.1621788
-3.677921	saw	-0.1170857
-3.83255	saxophone	-0.5074546
-4.022004	say	-0.2226869
-3.788434	says	-0.2261474
-4.081677	scale	-0.02712192
-3.677921	scholars	-0.1012946
-4.022004	scholarship	-0.01666117
-3.321297	school	-0.1673031
-3.39947	schools	-0.1291543
-4.081677	sciabarra	-0.08109123
-3.494871	science	-0.08766191
-3.677921	sciences	-0.2128262
-3.589902	scientific	-0.2162753
-4.247488	scientists	-0.08323436
-4.247488	scope	-0.2449027
-4.247488	score	-0.07937544
-3.881658	scott	0.003833503
-3.83255	screening	-0.1249765
-4.081677	screenplay	-0.0791707
-4.081677	screenwriter	-0.2427848
-3.564125	sea	-0.180603
-4.060796	season	-0.04403579
-3.83255	seats	-0.1838479
-3.881658	secession	-0.1393582
-3.280364	second	-0.07464188
-3.788434	secondary	-0.2622712
-4.081677	secretary	-0.2336242
-3.539792	see	-0.02156325
-4.081677	seek	-0.07179509
-4.022004	seeking	-0.1616969
-4.247488	seeks	-0.1844302
-4.081677	seems	-0.5556164
-3.788434	seen	-0.1142087
-3.83255	selected	-0.1317736
-3.321297	self	-0.8878878
-4.060796	sell	-0.1312912
-3.748389	senate	-0.1921148
-4.247488	sensation	-0.06534
-3.83255	sense	-0.1112237
-4.022004	sent	-0.1125399
-4.022004	separate	-0.1600938
-4.081677	september	-0.1729577
-4.022004	series	-0.2508672
-4.247488	serious	-0.05108964
-3.881658	served	-0.4440059
-4.060796	service	-0.002350926
-4.022004	services	-0.1814829
-3.83255	set	-0.04621035
-3.83255	seven	-0.1316762
-3.267534	several	-0.1075263
-3.83255	severe	-0.1644316
-4.247488	severity	-0.3078216
-4.060796	seward	-0.1363839
-4.081677	sex	-0.1914193
-3.881658	sexual	-0.1994583
-4.060796	shall	-0.1632135
-4.060796	share	-0.09991661
-4.247488	sharing	-0.0761068
-2.938081	she	-0.2828442
-4.060796	sherman	-0.2354574
-4.247488	shifted	-0.09353957
-4.247488	shilkret	-0.01970328
-4.247488	short	-0.1155432
-4.081677	shot	-0.07850694
-3.677921	should	-0.3121743
-3.589902	show	-0.09162102
-3.881658	showed	-0.1962127
-4.247488	shown	-0.08277428
-3.677921	shrugged	-1.137011
-4.247488	siblings	-0.4797487
-4.081677	sight	-0.0549875
-4.081677	sign	-0.07665551
-4.022004	signed	-0.220241
-3.788434	significant	-0.1584903
-4.081677	significantly	-0.1086598
-3.83255	signs	-0.1574915
-4.247488	sikh	-0.0233019
-4.247488	sikhism	-0.1497413
-4.022004	similar	-0.2984721
-4.022004	simple	-0.09214865
-3.83255	simply	-0.1705878
-3.146893	since	-0.4536297
-3.516751	single	-0.1901732
-4.081677	sister	0.01644047
-3.881658	site	-0.1845993
-3.748389	six	-0.07120009
-4.247488	size	-0.08002581
-3.788434	skills	-0.3134325
-3.677921	slave	-0.2279817
-3.267534	slavery	-0.1126538
-3.646557	slaves	-0.1151038
-3.881658	small	-0.1993784
-4.022004	smith	-0.1848795
-4.247488	snowfall	-0.09556942
-3.231173	so	-0.1607242
-3.008641	social	-0.2536825
-4.247488	socialism	-0.2506192
-4.247488	socialist	-0.05066303
-3.494871	society	-0.1753355
-4.247488	soil	-0.06365726
-4.060796	sold	-0.09264209
-3.711727	soldiers	-0.0989853
-2.730319	some	-0.1583632
-4.247488	someone	-0.02463657
-3.788434	something	-0.06252134
-3.494871	sometimes	-0.1249372
-4.081677	somewhat	-0.1099057
-3.494871	son	-0.09301811
-4.247488	sons	-0.001468278
-3.881658	soon	-0.1397148
-4.247488	soprano	-0.3226611
-3.881658	soul	-0.1608807
-4.081677	source	-0.5491205
-4.060796	sources	-0.1800923
-3.454163	south	-0.1401622
-3.494871	southern	-0.2272795
-4.247488	sovereignty	-0.1485531
-4.081677	soviet	-0.320931
-4.247488	space	-0.2650806
-4.060796	spain	-0.1713901
-3.711727	spanish	-0.2291228
-4.081677	speak	-0.2668556
-4.022004	spear	-0.1306013
-3.748389	special	-0.1028577
-3.646557	specific	-0.1436759
-4.060796	spectrum	-0.2067652
-3.589902	speech	-0.1142915
-3.83255	speeches	-0.02388602
-3.881658	split	-0.181761
-4.247488	spoke	-0.1057713
-4.060796	spontaneous	-0.1091828
-4.081677	spring	-0.1968978
-3.646557	springfield	-0.4803812
-4.022004	stage	-0.09323252
-4.081677	start	-0.1273718
-2.595721	state	-0.2683197
-3.748389	stated	-0.3162202
-2.828743	states	-0.3433748
-4.081677	statius	-0.1637023
-3.83255	statuette	-0.05636691
-4.022004	statuettes	-0.1778334
-4.247488	steel	-0.1260623
-4.247488	stephen	-0.2662072
-3.382669	still	-0.0111465
-4.247488	stimuli	-0.2924647
-3.788434	stirner	-0.1430478
-3.711727	story	-0.3576127
-4.081677	strategy	-0.144182
-4.060796	strength	-0.3143895
-4.060796	strike	-0.1154982
-3.881658	strong	-0.1896757
-3.881658	strongly	-0.08499999
-4.060796	structure	0.01692688
-4.247488	structures	-0.1663783
-3.788434	struggle	-0.05427646
-3.788434	student	-0.1808623
-4.022004	students	-0.09643942
-4.022004	studied	-0.04624268
-3.454163	studies	-0.1185641
-3.176614	study	-0.4205551
-3.881658	style	-0.1599146
-3.748389	subject	-0.1695097
-4.247488	submit	-0.1100101
-4.247488	subsequent	-0.05104171
-4.060796	subsequently	-0.07161911
-4.022004	substance	-0.2141755
-4.247488	substantial	-0.1261422
-3.788434	success	-0.1562212
-3.881658	successful	-0.1377916
-4.022004	successfully	-0.4574391
-4.247488	successor	-0.109013
-2.838047	such	-0.8392085
-4.060796	suffering	-0.06479084
-4.247488	suffrage	-0.08130173
-3.788434	suggest	-0.2469001
-3.83255	suggested	-0.2291168
-4.247488	suggesting	-0.08677249
-4.081677	suggests	-0.2454719
-4.247488	summer	0.007596709
-4.060796	sun	-0.0004670322
-3.83255	superior	-0.05920128
-3.382669	support	-0.1720365
-3.646557	supported	-0.253067
-4.060796	supporting	-0.01165556
-3.83255	supreme	-0.3831772
-4.081677	survey	-0.2521801
-4.247488	survival	-0.4797487
-4.247488	survive	-0.1766501
-3.748389	survived	-0.1945218
-4.081677	surviving	-0.2811914
-4.247488	symphony	-0.3330471
-4.247488	symptom	-0.1546096
-3.3509	symptoms	-0.0755727
-4.022004	syndicalism	-0.08142532
-4.060796	syndicalist	-0.09937698
-4.247488	syndromal	-0.3217913
-3.539792	syndrome	-0.1612997
-3.3509	system	0.03186113
-4.081677	systematic	-0.1097713
-3.881658	take	-0.04456197
-3.788434	taken	-0.08281478
-3.83255	taking	-0.06476715
-4.081677	tasks	-0.08569951
-3.47404	tax	-0.1368327
-4.022004	taxes	-0.3565254
-4.247488	taylor	-0.09475233
-4.022004	teacher	-0.05698773
-4.247488	teaching	-0.09492795
-3.881658	technology	-0.07426338
-4.060796	telecast	-0.1217183
-4.022004	telephus	-0.03060617
-4.247488	televised	-0.1140785
-4.022004	television	-0.1299201
-3.748389	temple	-0.0946804
-3.83255	tend	-1.064531
-3.646557	tennessee	-0.2747667
-3.516751	term	-0.1902394
-4.081677	terminology	-0.05108371
-3.748389	terms	-0.1668921
-3.711727	territory	-0.1810675
-4.247488	test	-0.1761312
-4.022004	tests	-0.1690014
-4.247488	texas	-0.1565948
-4.247488	texts	-0.09141224
-2.847556	than	-0.1366068
-2.099903	that	-0.1529525
-1.247515	the	-0.5182142
-4.081677	theater	-0.1332223
-3.83255	theatre	-0.1664866
-2.756796	their	-0.3032078
-3.186991	them	-0.1232627
-4.247488	theme	-0.1677346
-3.646557	themselves	-0.04137615
-3.092933	then	-0.04717447
-4.081677	theology	-0.2375188
-3.788434	theophrastus	-0.1618779
-3.881658	theoretical	-0.03938909
-3.677921	theories	-0.06941944
-3.267534	theory	-0.2573245
-4.022004	therapy	-0.08872256
-2.9322	there	-0.6886132
-3.83255	therefore	-0.2178535
-3.052581	these	-0.1036545
-3.617306	thetis	-0.05297559
-2.780851	they	-0.3907346
-3.617306	thing	-0.1768255
-3.539792	things	-0.141448
-4.247488	think	-0.1030453
-4.022004	thinkers	-0.0007867664
-4.060796	thinking	-0.07892846
-3.564125	third	-0.01974307
-2.598421	this	-0.1878878
-3.677921	thomas	-0.2166077
-3.146893	those	-0.3910135
-3.416947	though	0.005001798
-3.208521	thought	-0.2046663
-3.30722	three	-0.1807486
-3.128151	through	-0.2059143
-3.539792	throughout	-0.8175541
-3.711727	thus	-0.1091957
-3.084557	time	-0.2653105
-3.39947	times	-0.08701451
-1.737413	to	-0.37888
-3.617306	today	-0.2076358
-3.788434	todd	-0.4389179
-3.83255	together	-0.0922178
-4.247488	tone	-0.1545913
-3.748389	too	-0.1728177
-3.39947	took	-0.1338094
-3.83255	top	-0.06245177
-4.247488	topics	-0.1523109
-4.247488	tornado	-0.1220048
-4.060796	tornadoes	-0.02525897
-3.677921	total	-0.1513539
-4.022004	toward	-0.02111146
-3.564125	towards	-0.1727965
-3.83255	trade	-0.08949377
-3.881658	tradition	-0.1436426
-4.081677	traditional	-0.1099157
-3.788434	traditions	-0.2767971
-3.788434	tragedy	-0.08627339
-4.247488	traits	0.0004879013
-4.081677	translated	-0.2468944
-4.081677	treated	-0.09072436
-3.881658	treatises	-0.08323875
-3.564125	treatment	-0.05781539
-4.081677	trial	-0.1462958
-4.060796	tribe	-0.1336835
-3.881658	troilus	-0.1577615
-3.646557	trojan	-0.8064011
-4.247488	trojans	-0.08540203
-3.589902	troops	-0.1168498
-4.247488	trophy	-0.08498856
-3.748389	troy	-0.1587329
-4.247488	true	-0.1771427
-3.881658	turn	-0.1397172
-3.881658	turned	-0.2476664
-4.247488	tuscaloosa	-0.07498331
-4.060796	tuskegee	-0.001040973
-4.247488	twelve	-0.04540304
-4.060796	twenty	-0.2586642
-2.962433	two	-0.2529497
-4.247488	type	-0.1652129
-4.247488	types	-0.3078216
-4.247488	typically	-0.09635346
-3.3509	u.s.	-0.1182329
-4.081677	uk	0.02511724
-4.081677	ultimately	-0.108153
-4.247488	ulysses	-0.4942269
-4.060796	unable	-0.6467712
-4.060796	unclear	-0.2883397
-3.293584	under	-0.2592948
-3.711727	understanding	-0.2310848
-3.83255	understood	-0.1785942
-3.110185	union	-0.1719059
-4.081677	unions	-0.09841821
-3.068275	united	-1.028162
-3.564125	universal	-0.1656758
-4.022004	universals	-0.1170002
-4.060796	universities	-0.1975188
-3.416947	university	-0.4243532
-4.247488	unless	-0.09263994
-4.247488	unlike	-0.09061028
-4.081677	unrounded	-0.5635694
-3.366494	until	-0.2324969
-4.060796	unusual	-0.2585191
-3.435156	up	-0.1388704
-3.617306	upon	-0.0953616
-4.060796	upper	-0.1408988
-4.247488	urban	-0.1935233
-3.30722	us	-0.306748
-3.454163	use	-0.5164219
-3.280364	used	-0.259047
-3.83255	using	-0.0001280978
-3.646557	usually	-0.1160551
-4.247488	validity	-0.3078216
-4.247488	valley	-0.002434142
-4.060796	values	-0.09318464
-3.711727	various	-0.1439523
-3.617306	version	-0.5491698
-4.081677	versions	-0.1319067
-3.646557	very	-0.06922296
-4.247488	veto	-0.09939491
-4.247488	via	-0.09643038
-4.081677	vice	-0.1737662
-4.247488	victor	-0.01108199
-3.83255	victory	-0.0331583
-3.617306	view	-0.1900341
-4.022004	viewers	-0.1914952
-3.788434	views	-0.1697157
-3.881658	violent	-0.2505541
-4.022004	virginia	-0.1657501
-3.788434	virtue	-0.1379954
-4.247488	vision	-0.1513632
-4.247488	visit	-0.1853518
-4.247488	volunteer	-0.09816796
-3.788434	vote	-0.0952395
-4.022004	voted	-0.1918579
-3.788434	voters	-0.1398205
-3.677921	votes	-0.1372968
-3.589902	voting	-0.1977412
-3.788434	vowel	-0.1890748
-4.022004	wallace	-0.2530186
-2.857277	war	-0.282972
-4.247488	warned	-0.3304102
-4.247488	warrior	-0.08890586
-2.160685	was	-0.2626629
-3.539792	washington	-0.3005085
-4.247488	watch	-0.06168988
-4.081677	watched	-0.2175895
-3.83255	water	-0.2544399
-3.617306	way	-0.1298525
-3.293584	we	-0.1531346
-4.081677	weeks	-0.1609153
-3.30722	well	-0.4613957
-3.881658	went	-0.2563011
-2.569607	were	-0.152196
-3.711727	west	-0.1851455
-4.060796	western	-0.163441
-3.197623	what	-0.1110254
-2.926398	when	-0.2667871
-3.321297	where	-0.2125109
-4.060796	whereas	-0.06864323
-3.788434	whether	-0.1756104
-2.542585	which	-0.2349075
-3.677921	whig	-0.2578576
-3.037435	while	-0.2406269
-3.711727	white	-0.1341205
-3.589902	whites	-0.01506513
-2.887819	who	-0.2882851
-3.788434	whom	-0.1045767
-3.748389	whose	-0.1132273
-3.788434	widely	-0.1911879
-4.081677	widespread	-0.1090272
-4.060796	wife	-0.05011331
-3.366494	will	-0.2305632
-3.47404	william	-0.4937407
-4.081677	willie	-0.08746868
-4.022004	wing	-0.1205098
-3.881658	winner	-0.1164634
-3.881658	winners	-0.1153042
-4.081677	winning	-0.000517793
-4.247488	wish	-0.2725649
-2.189283	with	-0.318088
-3.416947	within	-0.3819119
-3.293584	without	-0.2147987
-3.564125	women	-0.1366788
-3.47404	won	-0.1693428
-3.646557	word	-0.2056213
-3.748389	words	-0.1608278
-3.119075	work	-0.1287406
-4.081677	worked	-0.08536071
-3.564125	workers	-0.008329362
-3.788434	working	-0.09806093
-3.208521	works	-0.05725482
-3.3509	world	-0.1207617
-4.247488	worse	-0.1227146
-2.819633	would	-0.4130303
-3.881658	wound	-0.1666293
-4.247488	wounded	-0.1159179
-4.060796	write	-0.2062067
-4.060796	writer	-0.03086535
-3.881658	writers	-0.1654268
-3.788434	writing	-0.144602
-3.539792	writings	-0.1830469
-3.83255	written	-0.06260262
-3.516751	wrote	-0.03381249
-3.242958	year	-0.1295693
-3.146893	years	-0.2754435
-3.516751	york	-0.117688
-3.711727	you	-0.1645774
-3.677921	young	-0.1560245
-4.247488	your	-0.1261176
-4.060796	zeus	-0.0393021
-4.081677	zoology	-0.188284
-3.366494	–	-0.01646282
-3.748389	—	-0.1943158

\2-grams:
-2.686608	" "
-3.1385	" &	0.1028867
-3.740786	" '
-1.576835	" (	0.1315752
-1.350051	" )	0.1273597
-1.027481	" ,	-0.03372784
-2.560472	" -
-1.26357	" .	-0.4878625
-2.686608	" :
-2.560472	" ;	-0.007810511
-1.201825	" </s>
-0.6992989	" <unk>	-0.1148636
-1.5646	" a	-0.2306553
-3.1385	" abraham	0.3646035
-3.740786	" academy
-3.740786	" according
-3.740786	" account
-3.1385	" achilles
-3.740786	" action
-3.740786	" actor
-3.740786	" actual
-3.740786	" affair
-2.686608	" alabama	-0.07416927
-2.840805	" all
-3.740786	" almost
-3.740786	" also
-3.740786	" although
-3.740786	" altruism
-3.740786	" altruistic
-3.740786	" among
-2.041722	" an	-0.2158329
-3.1385	" analytics	0.110551
-3.1385	" anarchism
-3.740786	" anarchist
-1.629541	" and	-0.2920867
-2.840805	" animalia	-0.003409475
-3.740786	" announced
-3.740786	" another
-3.1385	" are
-3.740786	" arguing
-3.1385	" aristotle
-2.217813	" as	-0.03277197
-3.740786	" asd
-2.006959	" atlas	0.2248358
-2.439854	" autism	-0.4032
-2.560472	" autistic
-3.1385	" ayn
-3.1385	" bad	-0.07788986
-3.740786	" became
-3.1385	" because
-3.740786	" before
-3.740786	" being
-3.740786	" bitter
-3.1385	" black
-3.740786	" but
-2.439854	" by
-3.740786	" can
-3.740786	" capitalism
-3.740786	" career
-3.740786	" categories
-3.740786	" chance
-3.740786	" chicago
-3.740786	" childhood
-3.740786	" classification
-3.740786	" conceived
-3.740786	" constitution
-3.740786	" critical
-3.740786	" current
-2.686608	" de
-2.840805	" denotes	0.1751145
-3.740786	" doctrine
-3.740786	" drawing
-3.1385	" e	0.9434336
-3.740786	" early
-3.1385	" egoism
-3.740786	" either
-3.740786	" esoteric
-3.740786	" eventually
-3.1385	" every
-3.740786	" exact
-3.740786	" exoteric
-3.740786	" eye
-3.740786	" failure
-3.740786	" father
-2.840805	" first
-2.217813	" for	0.06238864
-3.740786	" form
-3.740786	" fort
-3.740786	" founded
-3.740786	" four
-3.740786	" fragments
-3.1385	" free
-3.740786	" freedom
-3.1385	" from
-3.740786	" full
-2.840805	" generation	-0.1184783
-3.740786	" geography
-3.740786	" get
-3.740786	" gettysburg
-3.740786	" gives
-3.1385	" good	-0.1534989
-3.740786	" government
-3.740786	" grew
-3.740786	" grief
-3.740786	" had
-3.740786	" happiness
-2.16666	" has	0.1035019
-2.560472	" he	-0.05871026
-3.740786	" here
-3.740786	" historical
-2.686608	" history	-0.2659868
-3.740786	" homer
-3.1385	" house
-2.006959	" i	-0.01500531
-3.1385	" if
-2.120903	" iliad	0.2340438
-1.759175	" in	0.05734804
-3.740786	" includes
-3.740786	" individualist
-3.740786	" insistence
-1.77848	" is	0.0280056
-2.686608	" it
-3.740786	" journal
-3.740786	" just
-3.740786	" karma
-3.740786	" land
-3.740786	" led
-3.1385	" leuce	-0.1215076
-2.840805	" libertarian
-2.840805	" libertarianism	-0.07098998
-3.740786	" like
-3.1385	" lincoln
-3.1385	" literary
-3.1385	" lord
-3.740786	" los
-3.740786	" lost
-3.1385	" love
-3.740786	" major
-3.740786	" man
-3.740786	" many
-3.1385	" may
-2.560472	" metaphysics	-0.2101527
-3.740786	" military
-3.1385	" modern
-3.740786	" more
-3.740786	" mother
-3.740786	" much
-3.740786	" must
-3.1385	" my
-3.1385	" national
-3.1385	" natural
-3.1385	" necessary	-0.07788986
-3.740786	" neither
-3.1385	" night	-0.004517838
-2.840805	" no
-3.1385	" nothing
-3.740786	" objectivism
-3.740786	" odysseus
-2.07951	" of
-2.686608	" on
-3.740786	" once
-2.041722	" or	-0.07588286
-2.686608	" oscar	-0.3512564
-3.740786	" other
-2.840805	" our	-0.08342216
-3.740786	" over
-3.740786	" own
-3.740786	" partly
-3.740786	" parts
-3.740786	" pdd
-3.740786	" people
-3.740786	" perhaps
-3.740786	" perpetual
-3.740786	" philosophy
-3.740786	" physics
-3.740786	" plants
-2.840805	" poetics	-0.003409475
-3.1385	" political
-2.686608	" politics	-0.3614506
-3.740786	" positive
-3.740786	" possibly
-3.740786	" potential
-3.740786	" preserve
-3.1385	" primarily	-0.09476397
-3.740786	" principles
-3.740786	" prior
-3.740786	" private
-3.740786	" profound
-3.740786	" qualify
-2.686608	" rand
-3.740786	" reader
-3.1385	" received
-3.740786	" red
-3.740786	" refers
-3.740786	" regarding
-3.1385	" replied
-3.740786	" republican
-3.740786	" result
-3.1385	" revolutionary
-3.1385	" says
-3.740786	" school
-3.1385	" science	-0.14914
-3.740786	" scientific
-3.740786	" second
-3.740786	" see
-3.740786	" self
-3.740786	" she
-3.740786	" soul
-3.740786	" sovereignty
-3.740786	" still
-3.740786	" strong
-2.840805	" survival	0.209798
-3.740786	" taking
-3.1385	" than
-2.120903	" that	-0.02135175
-1.357475	" the	-0.06090415
-3.740786	" their
-3.740786	" then
-3.740786	" theory
-3.1385	" there
-3.1385	" they
-3.740786	" third
-3.740786	" this
-3.740786	" those
-3.1385	" three
-3.740786	" throughout
-3.740786	" time
-3.740786	" times
-2.07951	" to
-3.740786	" topics
-3.740786	" universals
-3.740786	" wallace
-3.740786	" war
-2.120903	" was
-2.16666	" we	-0.3324529
-3.740786	" well
-3.740786	" were
-2.686608	" what
-3.740786	" when
-3.740786	" where
-2.686608	" which
-3.1385	" while
-3.740786	" white
-3.1385	" who
-3.740786	" willie
-2.451445	" with
-2.840805	" without
-3.740786	" won
-3.1385	" works
-2.840805	" would
-3.740786	" writer
-3.1385	" written
-3.1385	" you
-3.740786	" –
-3.740786	" —
-1.920913	$ (
-1.020932	$ <1-digit-integer>	-0.1009528
-1.920913	$ <1-digit-integer>,<3-digit-integer>
-1.020932	$ <1-digit-integer>.<1-digit-integer>	-0.2469035
-1.318628	$ <2-digit-integer>,<3-digit-integer>
-1.920913	$ <2-digit-integer>.<1-digit-integer>
-0.6315721	$ <3-digit-integer>	-0.1998488
-1.318628	$ <unk>
-1.920913	$ in
-0.80618	% )	-0.3291175
-1.526082	% ,
-1.371885	% .	0.76741
-1.371885	% <unk>	-0.1704194
-1.823778	% achieved
-2.426063	% and
-1.823778	% as
-2.426063	% average
-2.426063	% from
-1.823778	% had	-0.1643347
-1.823778	% in
-2.426063	% lost
-2.426063	% medical
-1.823778	% needed
-0.4839607	% of	-0.036713
-2.426063	% on
-2.426063	% said
-2.426063	% tax
-1.823778	% to	-0.1691516
-2.426063	% were
-2.426063	% –
-0.3305421	& <unk>	-0.07461388
-1.619883	& company
-1.017598	& sangamon
-1.619883	& sons
-1.607098	' "	-0.05259962
-1.371935	' (	0.002955958
-2.661276	' )
-2.661276	' ,
-1.607098	' .	0.76741
-0.6100289	' <unk>
-2.05899	' a
-2.661276	' ability
-2.661276	' act
-2.661276	' aid
-2.661276	' american
-2.661276	' and
-1.761295	' animals	-0.08960216
-2.05899	' armor
-2.661276	' arrow
-2.661276	' as
-2.661276	' battle
-2.661276	' be
-2.661276	' by
-2.661276	' character
-2.661276	' children
-2.661276	' conference
-2.661276	' daughter
-2.661276	' day
-1.480962	' death	0.01012422
-2.661276	' does
-2.661276	' fate
-2.661276	' fight
-2.661276	' first
-2.661276	' four
-2.661276	' fourth
-2.05899	' from
-2.661276	' grief
-2.661276	' had
-2.661276	' he
-2.661276	' heel
-2.661276	' heroic
-2.661276	' intervention
-2.661276	' laws
-2.661276	' lost
-2.661276	' movements
-2.661276	' name
-2.661276	' names
-2.661276	' national
-2.661276	' on
-2.661276	' or
-2.661276	' oscar
-2.661276	' own
-2.661276	' played
-2.661276	' rage
-2.661276	' rand
-2.661276	' relationship
-2.661276	' rights
-2.661276	' role
-2.661276	' s
-2.661276	' sons
-2.661276	' stated
-2.661276	' support
-2.661276	' the
-2.661276	' to
-2.661276	' vote
-2.661276	' women
-2.661276	' words
-2.661276	' you
-1.491362	's "	-0.01895587
-3.225188	's '
-3.225188	's (
-3.225188	's )
-3.225188	's ,
-2.325207	's <4-digit-integer>
-0.614079	's <unk>	-0.07684976
-3.225188	's ]
-3.225188	's academy
-3.225188	's actions
-3.225188	's affair
-3.225188	's agricultural
-3.225188	's aims
-3.225188	's and
-2.17101	's army
-3.225188	's art
-3.225188	's association
-3.225188	's at
-3.225188	's basic
-3.225188	's behaviors
-3.225188	's beliefs
-3.225188	's best
-3.225188	's birth
-2.622903	's birthday
-3.225188	's bitter
-2.325207	's body
-2.622903	's book
-3.225188	's books
-3.225188	's bringing
-3.225188	's cabinet
-3.225188	's call
-3.225188	's candidate
-3.225188	's ceremony
-3.225188	's claim
-3.225188	's classification
-3.225188	's close
-3.225188	's common
-3.225188	's composition
-3.225188	's concept
-2.622903	's conception	0.1475233
-3.225188	's confederate
-3.225188	's conflict
-2.622903	's constitution
-3.225188	's convention
-2.622903	's core
-2.622903	's cousin
-3.225188	's critics
-1.924257	's death	-0.03784528
-3.225188	's delay
-3.225188	's design
-2.622903	's desire
-3.225188	's development
-3.225188	's direction
-2.622903	's division
-3.225188	's duty
-3.225188	's early
-3.225188	's economic
-3.225188	's economy
-2.622903	's election
-3.225188	's emphasis
-3.225188	's errors
-3.225188	's estimated
-2.622903	's ethics
-3.225188	's executive
-3.225188	's experience
-2.622903	's extant
-3.225188	's extent
-2.622903	's failure	-0.07867873
-2.622903	's family
-2.622903	's father
-3.225188	's fiction
-1.702215	's first	-0.02993025
-3.225188	's five
-3.225188	's focus
-3.225188	's forces
-3.225188	's formal
-2.622903	's funeral
-3.225188	's gain
-3.225188	's general
-3.225188	's genetics
-3.225188	's geography
-3.225188	's goal
-3.225188	's government
-3.225188	's governor
-2.622903	's greatest
-2.622903	's hand
-3.225188	's happiness
-2.622903	's headquarters
-3.225188	's hero
-3.225188	's high
-3.225188	's holiday
-3.225188	's home
-3.225188	's hypothesis
-1.702215	's ideas
-3.225188	's income
-3.225188	's individual
-2.622903	's industrial
-2.325207	's influence
-3.225188	's is
-3.225188	's knowledge
-3.225188	's land
-3.225188	's largest
-3.225188	's last
-3.225188	's later
-3.225188	's law
-2.622903	's letter
-3.225188	's level
-1.702215	's life	0.2944159
-3.225188	's lost
-2.622903	's main
-3.225188	's march
-2.622903	's marriage
-3.225188	's married
-3.225188	's metaphysics
-3.225188	's method
-3.225188	's modern
-3.225188	's moral
-2.622903	's most
-2.17101	's name
-3.225188	's natural
-3.225188	's nine
-3.225188	's notable
-2.325207	's novels	-0.0302005
-3.225188	's offices
-3.225188	's on
-3.225188	's only
-3.225188	's opponents
-3.225188	's origin
-3.225188	's original
-2.622903	's oscar	-0.1409866
-2.044875	's own
-3.225188	's personal
-2.622903	's philosophical
-1.605305	's philosophy	0.1419974
-3.225188	's plans
-2.622903	's political
-2.622903	's population
-3.225188	's position
-3.225188	's possible
-3.225188	's potential
-3.225188	's power
-2.622903	's presidency
-3.225188	's presidential
-3.225188	's prevalence
-3.225188	's prior
-3.225188	's processing
-3.225188	's proclamation
-3.225188	's production
-3.225188	's programs
-2.622903	's public
-3.225188	's reading
-3.225188	's religious
-3.225188	's response
-3.225188	's return
-3.225188	's reward
-3.225188	's rhetoric
-3.225188	's right
-3.225188	's rights
-3.225188	's role
-3.225188	's school
-2.325207	's scientific	0.005957879
-3.225188	's screenplay
-3.225188	's self
-3.225188	's seven
-3.225188	's son
-3.225188	's state
-3.225188	's strategy
-3.225188	's students
-3.225188	's style
-3.225188	's successor
-3.225188	's symptoms
-2.622903	's tax	-0.1501818
-3.225188	's teacher
-3.225188	's technology
-3.225188	's term
-2.622903	's terminology
-3.225188	's texts
-2.622903	's theatre	-0.1215076
-2.325207	's theory	0.06380486
-3.225188	's troops
-2.622903	's true	-0.05128184
-3.225188	's two
-3.225188	's understanding
-2.622903	's use	0.268823
-3.225188	's very
-3.225188	's views
-3.225188	's war
-3.225188	's watch
-3.225188	's white
-2.325207	's work
-2.325207	's works
-3.225188	's wound
-2.622903	's writing
-2.17101	's writings
-0.7957488	't <unk>
-0.7957488	't have
-1.398034	't in
-1.398034	't they
-0.9420081	( "	0.08971897
-3.163951	( $
-3.163951	( '
-1.589826	( )	0.04199197
-3.163951	( ,
-3.163951	( ;
-1.983638	( <1-digit-integer>	-0.235971
-1.983638	( <1-digit-integer>.<1-digit-integer>	-0.2907192
-3.163951	( <1-digit-integer>.<2-digit-integer>
-1.86302	( <2-digit-integer>	-0.01954855
-3.163951	( <2-digit-integer>,<3-digit-integer>
-2.561666	( <2-digit-integer>.<1-digit-integer>	0.3066116
-2.561666	( <3-digit-integer>
-3.163951	( <3-digit-integer>,<3-digit-integer>
-1.86302	( <4-digit-integer>	-0.4239389
-2.109773	( <4-digit-integer>–<4-digit-integer>	-0.09223077
-0.6197888	( <unk>	0.0217619
-1.983638	( a
-3.163951	( after
-3.163951	( agents
-3.163951	( ajax
-2.561666	( all
-3.163951	( along
-3.163951	( also
-3.163951	( altruism
-2.561666	( ampas	-0.05128184
-3.163951	( an
-3.163951	( ancient
-1.86302	( and
-2.561666	( as
-2.26397	( asd	-0.09893918
-3.163951	( beginning
-2.109773	( best	-0.05725111
-2.561666	( black
-3.163951	( book
-3.163951	( box
-3.163951	( but
-3.163951	( capital
-3.163951	( cells
-3.163951	( chance
-3.163951	( compassion
-3.163951	( densuşianu
-3.163951	( divided
-3.163951	( draft
-2.561666	( drama	-0.07788986
-2.561666	( e	0.9434336
-3.163951	( english
-3.163951	( esoteric
-3.163951	( especially
-3.163951	( exoteric
-3.163951	( february
-3.163951	( few
-1.640978	( for	-0.3230211
-3.163951	( form
-2.561666	( frequently
-3.163951	( glory
-3.163951	( group
-2.561666	( he
-3.163951	( heel
-3.163951	( humans
-2.26397	( i	-0.2480014
-3.163951	( if
-2.561666	( iii	0.110551
-1.87461	( in	0.07448275
-2.561666	( including
-3.163951	( individualist
-3.163951	( jefferson
-3.163951	( later
-3.163951	( love
-3.163951	( lower
-3.163951	( m
-3.163951	( male
-3.163951	( many
-3.163951	( matter
-2.561666	( meaning	0.04365742
-3.163951	( mns
-3.163951	( most
-3.163951	( mostly
-3.163951	( national
-3.163951	( net
-2.561666	( not
-3.163951	( november
-2.561666	( now
-3.163951	( on
-3.163951	( one
-3.163951	( only
-1.464887	( or
-3.163951	( over
-3.163951	( pausanias
-2.561666	( pdd
-3.163951	( plato
-3.163951	( pre
-3.163951	( prior
-3.163951	( quoted
-3.163951	( rational
-3.163951	( s
-1.86302	( see	0.05566349
-3.163951	( september
-3.163951	( single
-3.163951	( some
-3.163951	( sometimes
-2.561666	( such	0.2747642
-3.163951	( survey
-2.561666	( that	-0.1663638
-1.589826	( the
-3.163951	( thomas
-3.163951	( though
-3.163951	( through
-3.163951	( thus
-3.163951	( to
-3.163951	( tuscaloosa
-3.163951	( under
-2.109773	( university	-0.143141
-3.163951	( unlike
-3.163951	( where
-2.26397	( which
-3.163951	( who
-2.26397	( with	-0.0374115
-2.11348	) "
-3.167658	) (
-2.565372	) +
-0.6183558	) ,	-0.01824141
-0.6234954	) .	-0.5548092
-3.167658	) :
-1.987344	) ;
-1.644685	) </s>
-1.205352	) <unk>
-3.167658	) along
-3.167658	) altruistic
-1.085377	) and	-0.05407896
-1.866726	) are
-2.267677	) as	-0.1019498
-3.167658	) attributes
-3.167658	) became
-3.167658	) because
-2.565372	) but
-3.167658	) can
-3.167658	) even
-3.167658	) eventually
-3.167658	) for
-3.167658	) form
-3.167658	) forms
-3.167658	) from
-3.167658	) generated
-3.167658	) growth
-3.167658	) had
-3.167658	) hera
-3.167658	) i
-1.506382	) in	-0.0008208901
-3.167658	) included
-3.167658	) intended
-1.343655	) is	-0.02674789
-3.167658	) last
-3.167658	) logic
-1.593532	) of	0.05504534
-2.565372	) on
-1.987344	) or
-3.167658	) plant
-3.167658	) practical
-3.167658	) provided
-3.167658	) received
-3.167658	) related
-3.167658	) reports
-3.167658	) sea
-3.167658	) served
-3.167658	) spoke
-3.167658	) state
-3.167658	) symptoms
-3.167658	) taking
-3.167658	) than
-2.565372	) that
-3.167658	) then
-3.167658	) theoretical
-3.167658	) theory
-2.267677	) to
-3.167658	) toward
-3.167658	) under
-3.167658	) united
-3.167658	) virtue
-2.11348	) was	-0.04937269
-2.565372	) were
-3.167658	) when
-3.167658	) which
-3.167658	) with
-2.565372	) would
-1.318853	+ ,
-1.318853	+ -
-0.7165676	+ <4-digit-integer>
-1.318853	+ <unk>
-1.455932	, "	-0.04311943
-3.251381	, '
-3.549077	, (
-2.133539	, </s>
-2.490086	, <1-digit-integer>
-4.151362	, <1-digit-integer>,<3-digit-integer>
-4.151362	, <1-digit-integer>th
-2.490086	, <2-digit-integer>	-0.2158432
-1.768051	, <4-digit-integer>	-0.2525129
-4.151362	, <4-digit-integer>–<4-digit-integer>
-0.8412828	, <unk>	-0.09199093
-4.151362	, [
-1.662247	, a	-0.007579483
-3.549077	, about
-4.151362	, abraham
-4.151362	, academy
-2.628389	, according	0.8916211
-2.20926	, achilles	0.06889539
-4.151362	, achilles’
-4.151362	, acting
-3.549077	, actors
-4.151362	, admitted
-4.151362	, adults
-4.151362	, advocating
-4.151362	, african
-2.531479	, after	-0.1210922
-4.151362	, against
-4.151362	, age
-4.151362	, agricultural
-4.151362	, aims
-4.151362	, air
-3.549077	, ajax
-2.30103	, alabama	0.03501119
-4.151362	, alcohol
-3.549077	, alexander
-3.251381	, all
-2.971049	, along	0.1861027
-2.85043	, also
-2.116506	, although	0.02239244
-3.549077	, alto
-3.097184	, altruism
-4.151362	, american
-3.251381	, among
-2.355388	, an
-3.251381	, anarchism
-3.097184	, anarchists
-4.151362	, anarcho
-4.151362	, ancient
-0.9000351	, and	0.1865644
-4.151362	, angry
-3.549077	, animals
-4.151362	, announced
-3.549077	, another
-3.549077	, anti	1.244464
-4.151362	, apellicon
-3.549077	, appeared	-0.03274342
-4.151362	, approach
-4.151362	, aquinas
-2.971049	, are
-4.151362	, areas
-4.151362	, argued
-3.251381	, arguing	0.01328163
-2.151268	, aristotle	0.1619683
-4.151362	, around
-4.151362	, arrived
-4.151362	, article
-4.151362	, artists
-1.89801	, as	-0.01984116
-3.251381	, asperger	0.3175898
-2.452298	, at	-0.005396247
-4.151362	, attacked
-3.251381	, autism	-0.03517301
-3.251381	, autistic	0.07014504
-4.151362	, availability
-4.151362	, b
-4.151362	, bakunin
-3.251381	, based	0.4468957
-4.151362	, be
-2.85043	, because	0.1950763
-4.151362	, become
-3.097184	, before
-4.151362	, began
-4.151362	, believing
-4.151362	, below
-3.549077	, between
-4.151362	, bhai
-4.151362	, bill
-3.549077	, biology
-3.097184	, birmingham
-4.151362	, book
-3.549077	, booth
-2.85043	, both	-0.0331224
-4.151362	, breckinridge
-3.097184	, bringing
-3.097184	, buddhism	0.07974312
-1.549208	, but	0.02819684
-2.490086	, by	0.05998929
-3.251381	, called
-4.151362	, came
-4.151362	, can
-4.151362	, capable
-4.151362	, capital
-4.151362	, cases
-4.151362	, causality
-4.151362	, ceremonies
-4.151362	, certain
-4.151362	, character
-4.151362	, characterized
-3.549077	, charles
-4.151362	, chief
-4.151362	, christian
-3.549077	, christianity	0.09154056
-4.151362	, church
-4.151362	, city
-4.151362	, civil
-3.251381	, claiming
-4.151362	, cognitive
-4.151362	, collectivism
-4.151362	, come
-3.549077	, comedy
-4.151362	, commonly
-4.151362	, communication
-3.549077	, communism
-4.151362	, communist
-4.151362	, community
-4.151362	, compared
-4.151362	, composed
-3.251381	, congress
-3.097184	, conservative
-4.151362	, contain
-4.151362	, contemporary
-4.151362	, contributed
-4.151362	, cotton
-4.151362	, could
-4.151362	, counties
-4.151362	, criticized
-3.251381	, d	-0.003409475
-4.151362	, data
-3.549077	, defined
-4.151362	, defines
-4.151362	, delay
-3.549077	, democratic
-4.151362	, democrats
-3.251381	, depending	-0.01332639
-4.151362	, described
-4.151362	, describes
-3.097184	, despite
-4.151362	, destruction
-4.151362	, developmental
-4.151362	, diagnosed
-4.151362	, diagnosis
-3.097184	, died
-4.151362	, direct
-3.549077	, directors
-3.251381	, douglas
-3.251381	, drawing
-4.151362	, due
-3.097184	, during	0.2715147
-3.549077	, e	0.9434336
-3.251381	, each
-4.151362	, economics
-3.097184	, education	-0.00870797
-3.549077	, either
-3.549077	, emma	0.3237585
-3.251381	, english
-2.862021	, especially	0.06180258
-4.151362	, estimated
-3.097184	, etc	0.06794173
-3.549077	, ethics	-0.02056149
-2.971049	, even	-0.04469523
-3.549077	, eventually
-4.151362	, evolutionary
-3.251381	, except	0.2347622
-4.151362	, executive
-4.151362	, explaining
-4.151362	, expressed
-4.151362	, extensive
-4.151362	, family
-4.151362	, far
-4.151362	, february
-4.151362	, federation
-4.151362	, felt
-4.151362	, feminist
-4.151362	, ferrer
-3.549077	, few
-3.251381	, first
-4.151362	, five
-3.251381	, florida	-0.0302005
-4.151362	, focused
-4.151362	, focuses
-3.549077	, followed	0.1475233
-3.549077	, following
-2.490086	, for	-0.1191868
-4.151362	, force
-3.549077	, foreign
-4.151362	, formal
-4.151362	, formed
-4.151362	, fought
-3.549077	, found
-3.549077	, founded	-0.05232991
-3.549077	, four
-4.151362	, free
-4.151362	, freed
-4.151362	, frequently
-4.151362	, friedrich
-2.862021	, from	0.05146625
-4.151362	, further
-4.151362	, future
-4.151362	, gained
-3.251381	, general
-3.549077	, generally
-3.549077	, genes
-4.151362	, geography
-2.971049	, george
-3.097184	, georgia	-0.0330945
-4.151362	, german
-3.251381	, given	-0.07261889
-4.151362	, giving
-4.151362	, god
-4.151362	, good
-3.549077	, government	-0.1547821
-4.151362	, grief
-4.151362	, group
-4.151362	, guided
-4.151362	, guru
-3.097184	, had
-4.151362	, hard
-3.549077	, has
-3.549077	, have
-4.151362	, having
-1.868721	, he	0.01634715
-4.151362	, headquartered
-4.151362	, headquarters
-4.151362	, health
-4.151362	, heavy
-3.549077	, hector
-4.151362	, held
-4.151362	, hence
-4.151362	, henry
-4.151362	, her
-4.151362	, high
-2.531479	, his	-0.04323513
-4.151362	, historian
-4.151362	, historians
-4.151362	, hold
-4.151362	, holding
-4.151362	, hollywood
-4.151362	, honor
-3.251381	, honoring
-4.151362	, how
-2.417536	, however	0.2315242
-4.151362	, huntsville
-4.151362	, hypothesizes
-2.85043	, i	-0.09492568
-2.490086	, if	-0.01935513
-4.151362	, ii
-4.151362	, iii
-2.490086	, illinois	-0.1347664
-4.151362	, important
-1.807203	, in	0.05029424
-4.151362	, include
-2.054358	, including	-0.01262126
-4.151362	, independent
-4.151362	, independently
-4.151362	, individual
-4.151362	, individualist
-3.549077	, individuals
-4.151362	, initially
-4.151362	, instead
-3.549077	, intended
-4.151362	, interest
-4.151362	, into
-2.276206	, is	-0.1296169
-3.549077	, islam	-0.05128184
-2.151268	, it	-0.01516962
-3.549077	, its
-4.151362	, james
-3.549077	, jim
-4.151362	, job
-2.628389	, john
-4.151362	, joseph
-4.151362	, just
-4.151362	, karma
-2.85043	, kentucky	0.2021609
-4.151362	, key
-3.549077	, killing
-3.549077	, king	-0.03097044
-4.151362	, known
-3.549077	, language
-4.151362	, largely
-4.151362	, last
-4.151362	, later
-3.251381	, leading	-0.1811255
-4.151362	, led
-3.549077	, lee
-4.151362	, legal
-4.151362	, liberty
-3.097184	, like
-4.151362	, likely
-4.151362	, limited
-1.69263	, lincoln	0.04924395
-4.151362	, literature
-4.151362	, live
-4.151362	, local
-3.549077	, located
-4.151362	, location
-3.549077	, logic
-4.151362	, lost
-3.549077	, love
-4.151362	, low
-3.251381	, making
-2.971049	, many	0.009213071
-4.151362	, march
-4.151362	, marriage
-3.251381	, mary	-0.01411526
-4.151362	, maryland
-3.549077	, mathematics
-4.151362	, matter
-3.549077	, may
-3.097184	, meaning	-0.1952418
-3.549077	, members
-3.549077	, metaphysics	-0.05860559
-3.549077	, mississippi	-0.1396496
-4.151362	, missouri
-3.549077	, mobile
-3.251381	, montgomery
-3.097184	, more	0.04345111
-2.85043	, most	-0.03251272
-3.251381	, mostly	-0.05041099
-3.549077	, music
-4.151362	, must
-3.549077	, my
-2.971049	, namely	0.07986894
-4.151362	, nation
-4.151362	, native
-4.151362	, natural
-4.151362	, near
-4.151362	, nearly
-4.151362	, neither
-3.549077	, neoptolemus
-4.151362	, nestor
-3.097184	, new	0.05611663
-4.151362	, nomination
-4.151362	, non
-4.151362	, nor
-3.549077	, north	-0.1261582
-2.531479	, not	-0.05000003
-3.549077	, noting	0.3237585
-4.151362	, november
-3.549077	, now
-4.151362	, object
-3.251381	, odysseus
-2.85043	, of	0.04482801
-3.549077	, offered
-4.151362	, often
-2.85043	, on	0.0375195
-2.628389	, one	0.0824933
-3.097184	, only
-4.151362	, opposed
-1.940414	, or	-0.005989291
-4.151362	, organised
-4.151362	, oscar
-3.549077	, others
-4.151362	, outside
-3.549077	, over
-4.151362	, overall
-4.151362	, parents
-4.151362	, paris
-3.549077	, part
-3.549077	, particular
-3.251381	, particularly
-3.549077	, partly
-4.151362	, patroclus
-4.151362	, peleus
-4.151362	, people
-4.151362	, per
-4.151362	, perform
-4.151362	, perhaps
-4.151362	, personal
-3.549077	, philosopher
-3.251381	, physics	0.1186764
-4.151362	, place
-4.151362	, placed
-4.151362	, planning
-4.151362	, plant
-3.251381	, plato
-3.251381	, played	-0.1184783
-4.151362	, poetry
-4.151362	, police
-3.251381	, politics	-0.05798785
-4.151362	, polk
-4.151362	, polyxena
-4.151362	, poor
-3.549077	, pope	-0.1064277
-4.151362	, popular
-2.971049	, possibly
-3.549077	, post	0.9086715
-4.151362	, potentiality
-4.151362	, powerful
-4.151362	, priam
-4.151362	, primarily
-4.151362	, probably
-4.151362	, proper
-4.151362	, property
-4.151362	, proposed
-4.151362	, protect
-4.151362	, provided
-3.549077	, psychology	-0.07788986
-3.251381	, published	0.1678275
-4.151362	, put
-4.151362	, question
-4.151362	, quoted
-2.230449	, rand	0.1313576
-3.549077	, ranging	0.110551
-2.531479	, rather	-0.0669862
-4.151362	, rational
-4.151362	, reading
-3.549077	, received
-3.549077	, referring	0.110551
-4.151362	, refused
-4.151362	, regarding
-4.151362	, released
-4.151362	, remains
-4.151362	, republican
-4.151362	, republicans
-4.151362	, researchers
-3.251381	, respectively	0.05623826
-3.549077	, responsible	0.4842852
-3.097184	, resulting	-0.09150225
-3.549077	, rhetoric
-4.151362	, rights
-4.151362	, rivers
-2.971049	, robert	0.01469041
-4.151362	, round
-3.549077	, running	-0.07788986
-4.151362	, russian
-4.151362	, sacrifice
-4.151362	, said
-4.151362	, saw
-4.151362	, saxophone
-4.151362	, science
-3.549077	, scientists
-4.151362	, screening
-4.151362	, secondary
-3.549077	, seeking	-0.1064277
-4.151362	, served
-4.151362	, several
-4.151362	, sexual
-3.549077	, shall	-0.09476397
-2.577236	, she	0.03145644
-4.151362	, shifted
-3.549077	, shilkret
-3.549077	, showed
-4.151362	, sikhism
-2.862021	, since	0.05674291
-4.151362	, slavery
-4.151362	, snowfall
-2.577236	, so	-0.03251351
-3.097184	, social	-0.1499539
-4.151362	, socialism
-4.151362	, society
-2.531479	, some	0.04272056
-4.151362	, something
-4.151362	, sometimes
-3.549077	, son	-0.05497888
-3.549077	, south
-4.151362	, southern
-4.151362	, spain
-4.151362	, spanish
-4.151362	, speech
-4.151362	, spoke
-3.549077	, state	-0.1250518
-4.151362	, steel
-4.151362	, study
-4.151362	, style
-4.151362	, subsequently
-2.133539	, such	-0.760015
-3.097184	, suggesting
-3.549077	, supported
-4.151362	, supporting
-4.151362	, symptoms
-3.549077	, syndicalism
-4.151362	, taken
-4.151362	, tax
-4.151362	, taylor
-4.151362	, technology
-4.151362	, telephus
-4.151362	, tend
-3.097184	, tennessee	-0.01186883
-4.151362	, territory
-4.151362	, than
-2.355388	, that	0.02701372
-1.201065	, the	0.1271313
-4.151362	, theater
-4.151362	, their
-2.531479	, then
-3.251381	, theophrastus
-2.417536	, there	-0.2580066
-3.251381	, therefore	0.05021799
-3.097184	, these
-3.549077	, thetis
-2.252725	, they	0.1708935
-3.549077	, things
-4.151362	, thinking
-2.85043	, this	-0.04747654
-4.151362	, those
-2.490086	, though
-4.151362	, thought
-4.151362	, through
-3.097184	, thus
-2.116506	, to	0.03513279
-4.151362	, today
-4.151362	, together
-4.151362	, took
-4.151362	, traditions
-4.151362	, tragedy
-3.549077	, tribe	-0.09476397
-4.151362	, troilus
-4.151362	, tuscaloosa
-4.151362	, tuskegee
-3.097184	, two
-4.151362	, typically
-3.251381	, under
-4.151362	, union
-4.151362	, unions
-3.549077	, until
-4.151362	, unusual
-2.490086	, us	-0.3210077
-4.151362	, used
-3.251381	, using
-3.097184	, usually
-4.151362	, values
-4.151362	, victor
-3.549077	, virginia
-4.151362	, warned
-2.133539	, was
-3.097184	, we
-4.151362	, went
-3.097184	, were
-3.549077	, what
-2.417536	, when	0.08195326
-2.276206	, where	-0.02498794
-3.097184	, whereas
-1.612401	, which	0.01925918
-2.100115	, while	0.02315542
-2.100115	, who	-0.0003603073
-2.971049	, whom
-3.549077	, whose
-4.151362	, will
-2.862021	, william
-3.549077	, willie
-4.151362	, winning
-1.815476	, with	-0.01114574
-3.097184	, without
-4.151362	, women
-4.151362	, words
-4.151362	, working
-3.251381	, would
-3.549077	, writers
-4.151362	, written
-3.549077	, wrote
-4.151362	, you
-4.151362	, zoology
-3.322313	- "
-3.322313	- (
-2.268136	- ,
-0.9465557	- -	-0.9217002
-1.556303	- </s>
-1.661038	- <2-digit-integer>	-0.02414304
-3.322313	- <2-digit-integer>th
-2.720028	- <3-digit-integer>
-2.422333	- <4-digit-integer>
-2.268136	- <4-digit-integer>s
-0.5010334	- <unk>	-0.04840451
-3.322313	- action
-3.322313	- admiration
-3.322313	- altruistic
-2.142	- american	-0.05364362
-2.422333	- anarchism	-0.08575411
-2.422333	- and	-0.1056882
-3.322313	- approach
-3.322313	- aristotelian
-3.322313	- at
-2.720028	- autistic	0.005581573
-2.422333	- based
-2.422333	- being
-3.322313	- birth
-3.322313	- born
-3.322313	- budget
-3.322313	- but
-2.268136	- capitalism
-2.720028	- care	0.04365742
-3.322313	- case
-2.422333	- chief
-3.322313	- citizens
-2.720028	- class
-2.720028	- classical
-3.322313	- communism
-2.422333	- communist
-3.322313	- communists
-3.322313	- critical
-3.322313	- d
-2.720028	- davis	-0.1149745
-2.720028	- day
-3.322313	- determined
-3.322313	- directed
-3.322313	- discovered
-2.720028	- dominated	-0.05128184
-3.322313	- east
-3.322313	- economics
-3.322313	- educated
-1.556303	- end	-0.6787759
-3.322313	- established
-2.720028	- feminism
-3.322313	- feminists
-2.268136	- fiction
-3.322313	- figure
-3.322313	- first
-3.322313	- fish
-3.322313	- free
-2.720028	- functioning
-3.322313	- gene
-2.720028	- god
-3.322313	- grant
-3.322313	- happiness
-3.322313	- held
-2.720028	- hour
-3.322313	- imaging
-2.422333	- in	-0.2836467
-3.322313	- inspired
-3.322313	- intended
-2.142	- interest
-3.322313	- issues
-2.720028	- joseph	-0.07788986
-2.142	- known
-3.322313	- language
-3.322313	- law
-2.720028	- led
-2.720028	- left	-0.1501818
-3.322313	- length
-2.142	- level
-2.720028	- life
-3.322313	- like
-3.322313	- limited
-3.322313	- lincoln
-3.322313	- line
-3.322313	- list
-3.322313	- lived
-3.322313	- managed
-2.422333	- market
-3.322313	- members
-3.322313	- northeast
-2.268136	- nos
-3.322313	- occur
-2.422333	- of	-0.2840741
-3.322313	- off
-3.322313	- office
-2.032973	- old
-3.322313	- one
-2.720028	- open
-3.322313	- or
-3.322313	- oscar
-3.322313	- oscars
-3.322313	- ownership
-2.720028	- party
-3.322313	- political
-3.322313	- positive
-3.322313	- president
-3.322313	- presidential
-3.322313	- quality
-3.322313	- reason
-2.720028	- regard
-2.268136	- related
-3.322313	- released
-3.322313	- resolution
-3.322313	- reviewed
-3.322313	- revolutionary
-2.720028	- scale
-3.322313	- second
-3.322313	- secondary
-3.322313	- set
-3.322313	- shot
-3.322313	- six
-3.322313	- slavery
-3.322313	- social
-3.322313	- southern
-3.322313	- soviet
-3.322313	- specific
-2.422333	- state
-3.322313	- structure
-3.322313	- supporting
-3.322313	- syndicalism
-2.268136	- syndicalist
-2.720028	- syndromal	0.110551
-3.322313	- systematic
-2.720028	- technology
-3.322313	- telecast
-2.720028	- term
-3.322313	- that
-3.322313	- the
-2.268136	- third	-0.02529856
-3.322313	- thought
-3.322313	- three
-3.322313	- time
-3.322313	- to
-3.322313	- two
-3.322313	- union
-3.322313	- view
-2.720028	- war
-2.720028	- white
-2.422333	- wing
-3.322313	- world
-3.322313	- wound
-1.70243	- year	-0.1946949
-1.480589	. "	-1.052654
-2.423974	. )	-0.285484
-2.423974	. ,
-3.395814	. .	1.006309
-0.02991129	. </s>
-3.998099	. <1-digit-integer>
-3.998099	. <2-digit-integer>
-3.998099	. <2-digit-integer>.<1-digit-integer>
-3.998099	. <2-digit-integer>.<2-digit-integer>
-3.998099	. <2-digit-integer>th
-3.998099	. <3-digit-integer>
-2.943921	. <unk>
-2.943921	. c	0.08485928
-3.998099	. collectivist
-2.232088	. document	-0.2001493
-2.708758	. e	0.5284432
-2.708758	. g	0.06929475
-3.395814	. m
-2.232088	. of	-0.9503503
-3.998099	. only
-3.998099	. the
-3.998099	. within
-0.9206876	... "
-1.522973	... <unk>
-1.522973	... [
-1.522973	... has
-0.9206876	... the
-1.522973	... you
-1.221718	/ <1-digit-integer>	-0.1449673
-0.7698252	/ <unk>
-1.221718	/ alto	0.03792472
-1.824003	/ i
-1.824003	/ or
-1.221718	/ s
-0.9240219	/ soprano	-0.003409475
-1.824003	/ student
-0.8346326	: "	-0.004663726
-2.533697	: '
-1.633716	: (
-1.931412	: )
-1.479519	: <1-digit-integer>
-2.533697	: <1-digit-integer>.<2-digit-integer>
-1.232765	: <2-digit-integer>	-0.03082956
-1.931412	: <3-digit-integer>,<3-digit-integer>
-1.232765	: <unk>
-1.931412	: a
-2.533697	: actors
-2.533697	: african
-2.533697	: although
-1.931412	: an
-2.533697	: animal
-2.533697	: cnt
-2.533697	: epic
-1.633716	: for	-0.2556438
-2.533697	: fragments
-1.931412	: he
-2.533697	: i
-2.533697	: if
-2.533697	: ii
-2.533697	: impairments
-1.931412	: in
-2.533697	: it
-2.533697	: lincoln
-2.533697	: plot
-2.533697	: proper
-2.533697	: some
-2.533697	: something
-2.533697	: that
-0.8724211	: the
-2.533697	: theophrastus
-2.533697	: to
-2.533697	: when
-1.893088	; "
-2.793069	; (
-2.793069	; ;
-2.793069	; </s>
-2.793069	; <1-digit-integer>
-2.793069	; <2-digit-integer>
-1.173186	; <unk>	-0.1698463
-1.738891	; a
-2.793069	; also
-2.190784	; although
-2.793069	; anarchist
-1.131794	; and	-0.01766783
-2.190784	; as
-2.793069	; because
-2.793069	; born
-2.793069	; but
-1.893088	; by
-2.793069	; claims
-2.793069	; communist
-2.793069	; deficits
-2.793069	; during
-2.793069	; florida
-1.738891	; for	-0.1652822
-2.793069	; georgia
-2.793069	; gershwin
-1.893088	; he
-2.793069	; his
-2.793069	; how
-1.893088	; however
-2.190784	; i	-0.1060517
-2.793069	; if
-2.793069	; impairments
-1.738891	; in
-2.793069	; independent
-2.793069	; instead
-2.793069	; islam
-1.738891	; it	-0.2743463
-1.893088	; its
-2.793069	; lincoln
-2.793069	; little
-2.793069	; no
-2.793069	; now
-1.893088	; one
-2.793069	; only
-2.793069	; or
-2.190784	; other
-2.793069	; others
-2.793069	; paper
-2.793069	; pdd
-2.793069	; reported
-2.793069	; russell
-2.190784	; see
-2.793069	; services
-2.190784	; several
-2.793069	; siblings
-2.190784	; so
-2.793069	; social
-2.793069	; studies
-2.793069	; telephus
-2.793069	; that
-0.9427373	; the	0.1004823
-2.793069	; their
-2.190784	; there
-2.793069	; therefore
-2.793069	; these
-2.190784	; they
-1.503728	; this
-2.793069	; thus
-2.793069	; tuskegee
-2.190784	; two
-2.793069	; until
-2.793069	; whereas
-2.793069	; while
-2.793069	; years
-2.793069	; –
-0.9700368	<1-digit-integer> %
-0.9242793	<1-digit-integer> )
-0.509306	<1-digit-integer> ,	-0.748698
-1.941877	<1-digit-integer> .	1.006309
-1.243231	<1-digit-integer> :	-0.410962
-1.021189	<1-digit-integer> <unk>
-1.941877	<1-digit-integer> and
-2.544162	<1-digit-integer> bill
-2.544162	<1-digit-integer> election
-2.544162	<1-digit-integer> horns
-1.644181	<1-digit-integer> may	-0.08739343
-1.644181	<1-digit-integer> of	0.02491751
-2.544162	<1-digit-integer> or
-1.941877	<1-digit-integer> per	-0.02649641
-1.941877	<1-digit-integer> percent
-1.941877	<1-digit-integer> states	-0.1577656
-2.544162	<1-digit-integer> to
-2.544162	<1-digit-integer> with
-2.544162	<1-digit-integer> without
-2.544162	<1-digit-integer> years
-0.8879245	<1-digit-integer>,<3-digit-integer> ,
-1.339817	<1-digit-integer>,<3-digit-integer> .	1.006309
-1.042121	<1-digit-integer>,<3-digit-integer> <unk>
-1.942102	<1-digit-integer>,<3-digit-integer> as
-1.942102	<1-digit-integer>,<3-digit-integer> awards
-1.339817	<1-digit-integer>,<3-digit-integer> for
-1.942102	<1-digit-integer>,<3-digit-integer> free
-1.942102	<1-digit-integer>,<3-digit-integer> had
-1.942102	<1-digit-integer>,<3-digit-integer> individual
-1.942102	<1-digit-integer>,<3-digit-integer> members
-1.942102	<1-digit-integer>,<3-digit-integer> most
-1.942102	<1-digit-integer>,<3-digit-integer> oscars
-1.942102	<1-digit-integer>,<3-digit-integer> people
-1.942102	<1-digit-integer>,<3-digit-integer> voting
-0.4074853	<1-digit-integer>.<1-digit-integer> %	-0.06366502
-1.379325	<1-digit-integer>.<1-digit-integer> :	-0.1558689
-1.981611	<1-digit-integer>.<1-digit-integer> <unk>
-1.08163	<1-digit-integer>.<1-digit-integer> billion
-1.379325	<1-digit-integer>.<1-digit-integer> for
-1.379325	<1-digit-integer>.<1-digit-integer> million
-1.379325	<1-digit-integer>.<1-digit-integer> per	-0.02649641
-1.981611	<1-digit-integer>.<1-digit-integer> percent
-1.981611	<1-digit-integer>.<1-digit-integer> years
-0.4108032	<1-digit-integer>.<2-digit-integer> %	0.01201057
-1.464981	<1-digit-integer>.<2-digit-integer> <unk>
-1.464981	<1-digit-integer>.<2-digit-integer> million
-1.464981	<1-digit-integer>.<2-digit-integer> per
-1.574125	<1-digit-integer>th academy
-1.574125	<1-digit-integer>th best
-0.3938122	<1-digit-integer>th century	-0.2517115
-1.574125	<1-digit-integer>th in
-1.574125	<1-digit-integer>th largest
-2.882334	<2-digit-integer> "
-0.7710894	<2-digit-integer> %	0.0481135
-2.280049	<2-digit-integer> )
-0.5812098	<2-digit-integer> ,	-0.5545157
-1.828156	<2-digit-integer> -	-0.06823641
-2.280049	<2-digit-integer> .	1.006309
-2.882334	<2-digit-integer> /
-2.882334	<2-digit-integer> :
-1.982353	<2-digit-integer> ;	-0.1003552
-2.882334	<2-digit-integer> </s>
-0.8310874	<2-digit-integer> <unk>	-0.1058553
-2.280049	<2-digit-integer> adults
-1.828156	<2-digit-integer> and	-0.07564947
-2.882334	<2-digit-integer> annual
-2.882334	<2-digit-integer> awards
-2.280049	<2-digit-integer> bc
-2.280049	<2-digit-integer> children	-0.02290694
-2.882334	<2-digit-integer> city
-2.280049	<2-digit-integer> continues
-2.882334	<2-digit-integer> counties
-2.882334	<2-digit-integer> county
-2.280049	<2-digit-integer> days	-0.1149745
-2.882334	<2-digit-integer> different
-2.882334	<2-digit-integer> electoral
-2.882334	<2-digit-integer> found
-2.882334	<2-digit-integer> four
-2.882334	<2-digit-integer> individuals
-2.882334	<2-digit-integer> is
-2.882334	<2-digit-integer> members
-1.982353	<2-digit-integer> million
-1.702021	<2-digit-integer> months	-0.02728749
-2.280049	<2-digit-integer> of
-2.882334	<2-digit-integer> or
-2.882334	<2-digit-integer> oscars
-2.882334	<2-digit-integer> other
-2.882334	<2-digit-integer> per
-1.702021	<2-digit-integer> percent	0.008436754
-2.882334	<2-digit-integer> private
-2.882334	<2-digit-integer> speech
-1.982353	<2-digit-integer> states	-0.01930909
-2.882334	<2-digit-integer> the
-2.280049	<2-digit-integer> times
-2.882334	<2-digit-integer> to
-2.882334	<2-digit-integer> weeks
-2.882334	<2-digit-integer> were
-2.882334	<2-digit-integer> when
-1.828156	<2-digit-integer> years
-2.882334	<2-digit-integer> young
-1.795974	<2-digit-integer>,<3-digit-integer> )
-1.193689	<2-digit-integer>,<3-digit-integer> .	1.006309
-1.193689	<2-digit-integer>,<3-digit-integer> <unk>
-1.795974	<2-digit-integer>,<3-digit-integer> and
-1.795974	<2-digit-integer>,<3-digit-integer> black
-1.795974	<2-digit-integer>,<3-digit-integer> have
-1.795974	<2-digit-integer>,<3-digit-integer> new
-1.193689	<2-digit-integer>,<3-digit-integer> people
-1.795974	<2-digit-integer>,<3-digit-integer> per
-1.795974	<2-digit-integer>,<3-digit-integer> troops
-1.795974	<2-digit-integer>,<3-digit-integer> voters
-1.795974	<2-digit-integer>,<3-digit-integer> were
-0.1760913	<2-digit-integer>.<1-digit-integer> %	0.1560812
-1.699064	<2-digit-integer>.<1-digit-integer> )
-1.699064	<2-digit-integer>.<1-digit-integer> in
-1.699064	<2-digit-integer>.<1-digit-integer> million
-1.699064	<2-digit-integer>.<1-digit-integer> percent
-0.8626956	<2-digit-integer>.<2-digit-integer> %
-1.464981	<2-digit-integer>.<2-digit-integer> )
-0.4108032	<2-digit-integer>.<2-digit-integer> million	-0.145503
-0.7165676	<2-digit-integer>st academy	0.05934471
-0.4188719	<2-digit-integer>st century
-2.097004	<2-digit-integer>th "
-2.097004	<2-digit-integer>th ,
-2.097004	<2-digit-integer>th <unk>
-0.9166909	<2-digit-integer>th academy	-0.2764645
-2.097004	<2-digit-integer>th and
-0.2730013	<2-digit-integer>th century	0.0501292
-2.097004	<2-digit-integer>th ceremony
-2.097004	<2-digit-integer>th in
-2.097004	<2-digit-integer>th largest
-1.494719	<2-digit-integer>th president	-0.1353982
-2.273095	<3-digit-integer> (
-1.67081	<3-digit-integer> )
-1.67081	<3-digit-integer> ,
-1.373114	<3-digit-integer> .	0.8923488
-1.092782	<3-digit-integer> <unk>
-2.273095	<3-digit-integer> actors
-2.273095	<3-digit-integer> ad
-1.67081	<3-digit-integer> and
-0.69897	<3-digit-integer> bc	-0.007273462
-1.67081	<3-digit-integer> best
-2.273095	<3-digit-integer> billion
-2.273095	<3-digit-integer> counties
-2.273095	<3-digit-integer> days
-2.273095	<3-digit-integer> death
-2.273095	<3-digit-integer> different
-2.273095	<3-digit-integer> m
-2.273095	<3-digit-integer> members
-1.218918	<3-digit-integer> million
-2.273095	<3-digit-integer> out
-2.273095	<3-digit-integer> people
-2.273095	<3-digit-integer> times
-2.273095	<3-digit-integer> to
-2.273095	<3-digit-integer> votes
-2.273095	<3-digit-integer> years
-1.339817	<3-digit-integer>,<3-digit-integer> ,
-1.942102	<3-digit-integer>,<3-digit-integer> .
-1.042121	<3-digit-integer>,<3-digit-integer> <unk>
-1.942102	<3-digit-integer>,<3-digit-integer> african
-1.942102	<3-digit-integer>,<3-digit-integer> blacks
-1.942102	<3-digit-integer>,<3-digit-integer> deaths
-1.942102	<3-digit-integer>,<3-digit-integer> for
-1.942102	<3-digit-integer>,<3-digit-integer> foreign
-1.942102	<3-digit-integer>,<3-digit-integer> have
-1.942102	<3-digit-integer>,<3-digit-integer> more
-1.339817	<3-digit-integer>,<3-digit-integer> people
-1.942102	<3-digit-integer>,<3-digit-integer> soldiers
-1.942102	<3-digit-integer>,<3-digit-integer> to
-1.339817	<3-digit-integer>,<3-digit-integer> votes
-1.942102	<3-digit-integer>,<3-digit-integer> whites
-1.942102	<3-digit-integer>,<3-digit-integer> words
-3.257373	<4-digit-integer> '
-1.523546	<4-digit-integer> )	0.1285724
-0.4019613	<4-digit-integer> ,	-0.06310479
-2.655087	<4-digit-integer> -	-0.1688643
-0.7923917	<4-digit-integer> .	-0.475628
-3.257373	<4-digit-integer> :
-2.655087	<4-digit-integer> ;
-2.655087	<4-digit-integer> </s>
-3.257373	<4-digit-integer> <1-digit-integer>th
-1.31527	<4-digit-integer> <unk>	-0.170381
-2.655087	<4-digit-integer> a
-3.257373	<4-digit-integer> active
-3.257373	<4-digit-integer> ad
-2.655087	<4-digit-integer> alabama
-3.257373	<4-digit-integer> allowed
-3.257373	<4-digit-integer> also
-3.257373	<4-digit-integer> american
-3.257373	<4-digit-integer> an
-1.491362	<4-digit-integer> and	-0.08225685
-2.357392	<4-digit-integer> as
-2.203195	<4-digit-integer> at	0.1267685
-2.655087	<4-digit-integer> awards
-3.257373	<4-digit-integer> bc
-2.655087	<4-digit-integer> best	-0.02840291
-3.257373	<4-digit-integer> book
